{"layers":[{"out_depth":25,"out_sx":1,"out_sy":1,"layer_type":"input"},{"out_depth":10,"out_sx":1,"out_sy":1,"layer_type":"fc","num_inputs":25,"l1_decay_mul":0,"l2_decay_mul":1,"filters":[{"sx":1,"sy":1,"depth":25,"w":{"0":0.31201075589567334,"1":-1.8110453332112144,"2":0.6541212854277557,"3":-0.30771034299354977,"4":-0.2506206936890327,"5":1.0312302503998736,"6":0.5196976303572388,"7":0.06220477092968228,"8":0.5949794985987663,"9":0.1493385588940726,"10":0.4084571200118377,"11":11.199021489789935,"12":-6.877315383304552,"13":10.793986035907302,"14":-0.4466897214999042,"15":0.5521205639403255,"16":-0.12770173252336442,"17":-0.9487294803764441,"18":0.5542557400895186,"19":-1.0070506558607024,"20":0.9265124763950361,"21":-0.25518520621512947,"22":-0.09045893562367005,"23":-0.4372955332488085,"24":1.9274126804264609}},{"sx":1,"sy":1,"depth":25,"w":{"0":-3.3542499225997395,"1":-1.8122366795225076,"2":-8.448863495141532,"3":-0.6565889047741681,"4":1.3601198352375743,"5":-0.37769304065269027,"6":-0.1306968912110675,"7":9.753689737760379,"8":1.2163056969676813,"9":-2.349698314963614,"10":-0.18175347399673072,"11":4.601694658245567,"12":-6.591923074037675,"13":0.15942169784433827,"14":5.749419559859814,"15":-1.9703766655397958,"16":0.37092915751281363,"17":-3.5467760140281723,"18":-3.074628987046644,"19":-0.3195644535323378,"20":-0.5553446667957671,"21":-13.17602171075403,"22":0.5265143633229589,"23":1.5310876752642295,"24":0.07605195504947153}},{"sx":1,"sy":1,"depth":25,"w":{"0":-0.013276688722943727,"1":0.18639669076607923,"2":1.960687041604073,"3":0.8100713609804648,"4":-0.6368353371378693,"5":0.9670343161094866,"6":-2.138436735168744,"7":3.0291656642467513,"8":0.47199371241051646,"9":0.12260455110918471,"10":-3.075763993898332,"11":11.819040580335155,"12":-3.170895112100126,"13":-6.912276900957606,"14":-1.6617429777574568,"15":0.7701380814023346,"16":0.8279892729813869,"17":0.7138639257630788,"18":-0.7679289427852253,"19":-2.9106600932143283,"20":1.1747523883063464,"21":-0.2601771275967735,"22":-1.4000447487358039,"23":-0.7222102123337562,"24":-2.2847632105502838}},{"sx":1,"sy":1,"depth":25,"w":{"0":-0.23788337872035578,"1":0.16262314179732257,"2":0.5851442269854606,"3":0.3369587404007717,"4":-0.07350775565779095,"5":-0.98653234055213,"6":0.1285707274063311,"7":10.828879701868429,"8":0.7671889189806899,"9":-0.17159710125144886,"10":-0.36551501941278985,"11":1.1143407239783591,"12":-7.99435355209747,"13":-0.42220770446041817,"14":-0.6744146374237764,"15":0.2115975730897704,"16":-0.3018927351426484,"17":11.553999821663465,"18":-0.3492852470284119,"19":0.5241105018736615,"20":0.00821277804947794,"21":-0.14515917053784771,"22":0.7577702462877681,"23":0.9871828095279923,"24":-0.39679886546789356}},{"sx":1,"sy":1,"depth":25,"w":{"0":-0.96999354135585,"1":-6.887017613777486,"2":1.928632263570959,"3":3.7790475989475563,"4":-1.857756801422005,"5":5.058844021682748,"6":-1.3658308227321887,"7":-5.588233418675532,"8":-9.59188854591149,"9":-3.9963735152178677,"10":5.37733933740891,"11":-2.1264285751025707,"12":-10.163731309593802,"13":-1.265972019663411,"14":0.23480076727221935,"15":1.541409216248849,"16":0.8047543314122761,"17":-4.514324937357769,"18":6.837000634641299,"19":5.69753978596673,"20":-3.948596702471683,"21":6.498693906004843,"22":7.853537276552366,"23":-2.0879810955155196,"24":4.288266875018135}},{"sx":1,"sy":1,"depth":25,"w":{"0":1.5381104455841619,"1":-0.3165613678411851,"2":-3.887933444525184,"3":2.58958790953382,"4":1.4079356335205215,"5":-3.2242329488615424,"6":-3.8358560605116545,"7":7.066398347327555,"8":-2.7442362257281356,"9":0.8288722235934369,"10":-0.18017116274689285,"11":-2.985885241110788,"12":-5.386176847559242,"13":10.86813677060209,"14":-4.476309782289891,"15":-0.7062825691074992,"16":-6.333896671152226,"17":-11.941042918904785,"18":-0.6623152951599216,"19":1.3635908294156636,"20":-0.571266233522399,"21":1.7566783234623071,"22":-3.7999740614510737,"23":-3.350324363355088,"24":0.8544743537080981}},{"sx":1,"sy":1,"depth":25,"w":{"0":0.7570252731034858,"1":-7.756681934378502,"2":2.482892266208099,"3":-0.4551120614240242,"4":-0.7303309511317073,"5":-1.1865929277490093,"6":2.914724752526301,"7":-1.1530311781475635,"8":-2.17770863304263,"9":-1.1878480848071094,"10":1.574542860174325,"11":-8.205510810327024,"12":-4.948650688035678,"13":12.005808669962471,"14":-2.0714420004788736,"15":0.24763313085460587,"16":0.8519592695497507,"17":4.187400515119938,"18":-1.2168993224555316,"19":-0.6343707691222397,"20":-3.8873700386379393,"21":0.2467559682004024,"22":0.17765370487170073,"23":-2.994828501990807,"24":-1.896895902909484}},{"sx":1,"sy":1,"depth":25,"w":{"0":-8.747084240834702,"1":1.4885762002205856,"2":0.9299756985244332,"3":-5.776027956888755,"4":-4.428999376777208,"5":-9.10069281900343,"6":-3.9381376478404686,"7":2.3545725919166713,"8":-3.295464805096779,"9":0.41652743272723125,"10":-3.085847231033776,"11":-9.92282344122787,"12":-2.129649766974576,"13":8.271147492871032,"14":3.2361920965356967,"15":-1.5136411920517703,"16":-6.721620258531927,"17":3.1756068810634743,"18":-0.3158758772817443,"19":-2.8293701511612808,"20":0.547329488563725,"21":0.6450845074400203,"22":-1.2867658221851759,"23":-2.498243224654555,"24":-2.2358623773737647}},{"sx":1,"sy":1,"depth":25,"w":{"0":-11.678812920199885,"1":0.33620004114056434,"2":-0.2040923762664297,"3":1.43838620525856,"4":-0.8222634115993325,"5":3.3809286965558036,"6":0.974786023282433,"7":-4.475756811696577,"8":-0.3118486732284856,"9":-1.8407848852105617,"10":-1.2275444933865063,"11":-9.678127061111171,"12":-1.7449643859759683,"13":8.30207665218589,"14":-8.55816884881507,"15":0.5961611213447212,"16":0.303844854822369,"17":-4.361652144865323,"18":-4.263705562611003,"19":0.876413610496755,"20":3.742254257040322,"21":-3.559922384423073,"22":-1.1507420112171467,"23":1.0421544621290404,"24":4.012939121892374}},{"sx":1,"sy":1,"depth":25,"w":{"0":2.314114902509374,"1":-0.6957628533455805,"2":0.5093778154888486,"3":-0.007896432343432907,"4":-1.5581706197169691,"5":-1.4205608244572177,"6":-1.3224930026742985,"7":-5.965458167154784,"8":-0.9283445290997091,"9":1.3887412497681149,"10":1.4878150939989243,"11":9.41044131914541,"12":-8.906488989107936,"13":1.779396415546566,"14":3.000652625159839,"15":0.5879887784604398,"16":-4.235257041602326,"17":9.515728408026371,"18":0.05618145324478579,"19":-1.8676532696223893,"20":0.5535230114769443,"21":-2.033738845566128,"22":-3.698478316761353,"23":-0.2879510823673097,"24":1.2106965880880054}}],"biases":{"sx":1,"sy":1,"depth":10,"w":{"0":-6.978500010267844,"1":-6.4489147016475465,"2":-3.202324924071975,"3":-8.291175863873262,"4":-10.541571729488464,"5":-5.3579617114602645,"6":-4.923048434733147,"7":-1.8389174639898256,"8":-1.6210364396547188,"9":-9.013303042722063}}},{"out_depth":10,"out_sx":1,"out_sy":1,"layer_type":"relu"},{"out_depth":4,"out_sx":1,"out_sy":1,"layer_type":"fc","num_inputs":10,"l1_decay_mul":0,"l2_decay_mul":1,"filters":[{"sx":1,"sy":1,"depth":10,"w":{"0":-3.2565766216945344,"1":-1.2273400737738818,"2":1.4209223216483693,"3":-0.8656895105933824,"4":-2.5074890858993863,"5":-2.3798165219496727,"6":-2.512250332852415,"7":-1.2667365837432512,"8":-3.1169587122785347,"9":-0.2977782529389276}},{"sx":1,"sy":1,"depth":10,"w":{"0":1.291799309494686,"1":-1.2504193081965063,"2":1.1823874769264369,"3":-3.7916933367631014,"4":-2.4830468991370584,"5":-0.10180571682317918,"6":-0.7701241801349806,"7":-1.7566952408533638,"8":-0.03611808891374248,"9":-1.7878265444041401}},{"sx":1,"sy":1,"depth":10,"w":{"0":-3.0482835141984537,"1":-0.35896036270706655,"2":-2.8961868471227556,"3":-0.2397373491034061,"4":-0.31393982209791277,"5":1.1498913675340479,"6":0.2388903862410683,"7":2.724278698564224,"8":1.4060584864927734,"9":-0.17972528563681725}},{"sx":1,"sy":1,"depth":10,"w":{"0":0.5921158685296949,"1":-1.8269036725164922,"2":-0.3361846851819476,"3":-3.1573108798252894,"4":0.7855834859051762,"5":-1.6701249305903862,"6":-0.9702377738949235,"7":-0.6780492063451556,"8":0.4477425012645166,"9":0.9749341626390788}}],"biases":{"sx":1,"sy":1,"depth":4,"w":{"0":-67.77956043369362,"1":-69.37849922276936,"2":-68.58099678611815,"3":-70.47977633445807}}},{"out_depth":4,"out_sx":1,"out_sy":1,"layer_type":"regression","num_inputs":4}]}