{"layers":[{"out_depth":25,"out_sx":1,"out_sy":1,"layer_type":"input"},{"sx":1,"sy":1,"stride":1,"in_depth":25,"out_depth":25,"out_sx":1,"out_sy":1,"layer_type":"conv","l1_decay_mul":0,"l2_decay_mul":1,"pad":0,"filters":[{"sx":1,"sy":1,"depth":25,"w":{"0":0.4586247291921457,"1":-0.09378329336144851,"2":-0.04343955075328043,"3":-0.29497453932498413,"4":-0.27377282323053953,"5":-0.05385767408239116,"6":-0.21931137259767028,"7":0.48899383439130845,"8":0.43309214797353685,"9":0.016184911573914346,"10":-0.013971538672656075,"11":-0.09903463532331384,"12":0.24191738511695335,"13":-0.3071678594244719,"14":-0.2688367145265893,"15":-0.24692899641893856,"16":-0.047137379742623726,"17":0.08598909404381744,"18":0.06037332408757366,"19":0.23374961154390572,"20":-0.14679644417628612,"21":0.027455081563453776,"22":-0.049170391873374235,"23":-0.11148910489391785,"24":0.01888621590742798}},{"sx":1,"sy":1,"depth":25,"w":{"0":0.16802116098788128,"1":0.023799865345280422,"2":-0.18418281708697012,"3":-0.006616322506559693,"4":-0.5260954091371948,"5":0.769331324185649,"6":-0.3199075271207063,"7":0.00815164506455099,"8":0.09431982923786787,"9":0.04618141132739923,"10":-0.29287366167058926,"11":-0.5808341311613292,"12":0.2245397245372565,"13":-0.3781929036887735,"14":-0.15161044137681517,"15":-0.24392242098357272,"16":0.13561781234929415,"17":-0.10404610248803067,"18":-0.14797429867629602,"19":0.09000386758197448,"20":-0.15407918076165666,"21":0.1729102237743725,"22":0.3980246982257831,"23":0.06348895422103387,"24":0.010956232151546407}},{"sx":1,"sy":1,"depth":25,"w":{"0":0.04949148079077495,"1":0.14095036930043114,"2":0.2125069178725456,"3":-0.248264115535063,"4":0.23412746436330498,"5":-0.23928029254436536,"6":-0.24194814770399944,"7":0.10177032892686044,"8":0.287175450097312,"9":0.41522377761664575,"10":-0.1517198641844686,"11":-0.1920732437966209,"12":-0.23124713608052896,"13":-0.14715930584353384,"14":-0.18139649582522618,"15":0.017400580234200283,"16":-0.12270912299169195,"17":-0.2680387170493516,"18":0.2100953899146283,"19":-0.25264724182623566,"20":0.11887239625675972,"21":0.01864548005409246,"22":0.14733555453699979,"23":-0.0968804406869055,"24":-0.1536681322994424}},{"sx":1,"sy":1,"depth":25,"w":{"0":-0.4961391433571086,"1":-0.004207291244169404,"2":-0.2920809870898227,"3":-0.3894755149796519,"4":-0.17074293954080152,"5":-0.07735723065294589,"6":-0.42226210590459223,"7":-0.7486969170639259,"8":-0.21719454360070795,"9":0.006819183198503273,"10":-0.3040808942134317,"11":0.044206494828394685,"12":0.1380323717712385,"13":-0.19515109462228475,"14":0.8210152483461906,"15":-0.21644294144040402,"16":-0.7366338813170293,"17":-0.36983233959162787,"18":-0.3934068795148737,"19":-0.2529100974635719,"20":0.4670078012039367,"21":-0.5384797067378064,"22":-0.23267514318269467,"23":-0.22571903989597633,"24":0.5295754676248167}},{"sx":1,"sy":1,"depth":25,"w":{"0":-0.12206624160571121,"1":0.0602017179941584,"2":-0.27683484818499515,"3":-0.1651201354699256,"4":0.049925932882438,"5":0.006819023386498394,"6":-0.03139080792031251,"7":-0.13561955365047382,"8":-0.26087916556893315,"9":0.3136879281597593,"10":-0.014763893237608619,"11":0.12805320334189013,"12":-0.41348080657225733,"13":-0.17540197437660215,"14":-0.0757348761376198,"15":0.07123365021973004,"16":-0.13379588654573965,"17":-0.12257986925652303,"18":0.13507093606709436,"19":-0.5096068753156718,"20":-0.27466705727152885,"21":-0.05018099677539224,"22":0.19172175001016298,"23":0.17216165344665285,"24":-0.1785172207227621}},{"sx":1,"sy":1,"depth":25,"w":{"0":-0.4614392937956967,"1":-0.6394396410988349,"2":0.24815270263016787,"3":-0.012528737167352087,"4":0.6155980374811807,"5":0.05080322187835014,"6":0.032811932503093375,"7":0.4126525153521367,"8":-0.030620802681283428,"9":-0.029345569306601205,"10":0.21603495547180238,"11":-0.34182588675887204,"12":0.24490315065526252,"13":-0.003837302178615088,"14":0.32703641422156843,"15":0.21811480785795515,"16":-0.6064467965339042,"17":-0.3454008206348248,"18":0.24388850761081862,"19":0.04666712902014709,"20":-0.21347900421195382,"21":0.3530724462316325,"22":-0.3570291700057133,"23":-0.18470806009101126,"24":-0.10174569108905374}},{"sx":1,"sy":1,"depth":25,"w":{"0":-0.30264570626291437,"1":-0.4490666489998921,"2":0.0690910055487668,"3":-0.30900633231436797,"4":0.1644028437315136,"5":0.38960563603106596,"6":0.0546956961177532,"7":0.444719525115446,"8":0.01107273600523133,"9":0.07055723036000723,"10":0.10634503932370405,"11":-0.20254600336590584,"12":-0.038767758762535055,"13":-0.15879210659363224,"14":-0.36465574110123417,"15":-0.22001095954368946,"16":-0.14023911422041857,"17":0.22800949222105288,"18":0.4939176584840463,"19":0.13246033368694005,"20":0.2443270449076142,"21":0.3796706371777986,"22":-0.23560548882164623,"23":0.011764406484791691,"24":-0.20853009040507925}},{"sx":1,"sy":1,"depth":25,"w":{"0":0.08006433419621017,"1":-0.5139625388965342,"2":-0.011345225018304851,"3":0.5328200466535438,"4":0.033167531371400244,"5":-0.2981536299676651,"6":0.027290212687466578,"7":0.05346598406448616,"8":0.10572140647832745,"9":-0.04796227494629436,"10":0.3616795753288895,"11":-0.10504113193470362,"12":-0.5258968769652405,"13":0.355894336997526,"14":-0.19263560809620828,"15":0.4983302232781868,"16":0.4029428938143584,"17":0.2209094463932702,"18":0.3771128785602996,"19":-0.09026226235560308,"20":-0.08383319190256087,"21":-0.2432369015246219,"22":-0.3512729114833276,"23":0.2521290996494719,"24":-0.573563426102635}},{"sx":1,"sy":1,"depth":25,"w":{"0":-0.4730782127342377,"1":-0.992661789423068,"2":0.018578098693794523,"3":-0.06083040010120834,"4":-0.02793097236638622,"5":-0.2518224894373197,"6":0.06384591333859074,"7":0.25997530720752204,"8":0.010322607053889595,"9":0.11168867694292944,"10":-0.28351278143756575,"11":-0.4169493915357048,"12":0.3542142671963532,"13":-0.3187304232842271,"14":0.1738795014414626,"15":0.3672010384151753,"16":0.20946523923565818,"17":-0.4832882401143263,"18":0.5133265821852021,"19":-0.11566647219507245,"20":0.39025407188984557,"21":0.5880788969285513,"22":-0.18983910657605846,"23":-0.11794357833910037,"24":-0.583765609908645}},{"sx":1,"sy":1,"depth":25,"w":{"0":-0.6457083051391738,"1":-0.6154171099167753,"2":-0.6634849036224264,"3":0.027959530290259653,"4":-0.6040954082149617,"5":-0.5803414101894091,"6":-0.10138979359674152,"7":-1.2890033521675233,"8":0.47739893223015745,"9":0.4085716272947466,"10":-0.6680141126612065,"11":-0.03096489945131306,"12":0.30216850228212355,"13":-0.6444797810322133,"14":0.060201581509829745,"15":0.7370581095399676,"16":-0.8073554050692552,"17":0.7626373336731883,"18":-0.027520702403077135,"19":0.005370818634866871,"20":0.6516723621278512,"21":-0.19919965852656696,"22":-0.48556773988644614,"23":-0.28518322495712095,"24":-0.6444228601382506}},{"sx":1,"sy":1,"depth":25,"w":{"0":-0.41871889077647556,"1":-0.13724329433574467,"2":-0.1302431652203347,"3":0.001179934248526509,"4":0.10526303893795826,"5":-0.35381065869057693,"6":-0.0032963122835550154,"7":0.09792776198673478,"8":0.8931540622329428,"9":0.36460080951699886,"10":-0.10251169160600812,"11":0.2080307594839717,"12":-0.20378230845546783,"13":-0.48644107871881065,"14":0.11546250400837177,"15":0.23316784211739192,"16":0.2328722308131294,"17":0.10310765120637301,"18":0.02535623271714259,"19":0.5583316593797806,"20":-0.8588406160138933,"21":0.23928578839741727,"22":0.016320574331637264,"23":0.35066029059523707,"24":-0.044475844231025366}},{"sx":1,"sy":1,"depth":25,"w":{"0":0.3241439658221773,"1":0.4477968138506885,"2":0.610901391058639,"3":-0.21906841663846147,"4":0.11528472869717127,"5":-0.04097415113936088,"6":-0.04087925890483266,"7":-0.3209127720658848,"8":-0.3739505939956567,"9":-0.4434950044273297,"10":0.5133390274081856,"11":0.3057644831168001,"12":-0.3498767716705895,"13":0.03329568604909271,"14":0.16695447116973736,"15":-0.37401741137001693,"16":-0.5248898775754895,"17":0.1491303974481642,"18":-0.6260670092685165,"19":0.5673558201370528,"20":-0.7269632789797061,"21":-0.4369762597098108,"22":-0.2532851460069185,"23":0.298379980692573,"24":-0.00964075953205841}},{"sx":1,"sy":1,"depth":25,"w":{"0":0.021140410473949933,"1":0.03950325942383146,"2":-0.06610475537125991,"3":0.006058077391442464,"4":-0.2958575954868306,"5":-0.575337707619034,"6":-0.18105118091889316,"7":-1.0153610126377477,"8":-0.39161422925902256,"9":-0.6380712936739059,"10":-0.22269504521038533,"11":-0.4951487143912976,"12":0.2509113545869726,"13":0.009175739665876096,"14":0.38448776446747857,"15":-0.4203536448560109,"16":0.43163748486040315,"17":0.1122012363228575,"18":0.009108433233367571,"19":-0.41894932966289894,"20":-0.9482949410612688,"21":0.029377680943594383,"22":0.35059709546959106,"23":0.9087043860554324,"24":-0.052610083973956376}},{"sx":1,"sy":1,"depth":25,"w":{"0":-0.5554171752814925,"1":-0.43445250182754086,"2":-0.13191176597162776,"3":0.02312223165214683,"4":-0.45468936835496626,"5":0.19625417663976688,"6":-0.2341068386091116,"7":-0.7027792385314812,"8":0.01107206670601708,"9":0.3826964322691131,"10":-0.20097021644692098,"11":-0.28449976908464153,"12":0.18921962426666722,"13":-0.5258688579335129,"14":-0.2747253519431631,"15":-0.12623282768077207,"16":0.05340131735818436,"17":0.44814753497324133,"18":-0.01958275041653766,"19":-0.8181949530031719,"20":0.050521913082585274,"21":-0.13839154102708723,"22":-0.012514994098629977,"23":0.7088337246425002,"24":0.11160986489367006}},{"sx":1,"sy":1,"depth":25,"w":{"0":0.39015367737045775,"1":-0.345324118132293,"2":-0.04784172924746307,"3":-0.204807408290621,"4":-0.480435858878125,"5":-0.3414199519563548,"6":-0.18463113755481655,"7":-0.5668303403935578,"8":-0.19009136324731593,"9":-0.17577338661766068,"10":0.3612393222108165,"11":0.3349544951963931,"12":-0.03446239081814371,"13":-0.532866305069293,"14":-0.4542336963252972,"15":-0.5212607842206735,"16":0.3055558744673373,"17":-0.0901407694490367,"18":-0.4919395716018133,"19":-0.021077202873301126,"20":-0.18939297746857148,"21":0.2641082821448255,"22":-0.34686487317494413,"23":-0.04631567506079557,"24":-0.17987309603519264}},{"sx":1,"sy":1,"depth":25,"w":{"0":-0.9565311856292198,"1":0.04219136973647145,"2":-0.1655620217718431,"3":0.3204904922521686,"4":0.7410110881844396,"5":-0.1710867168581865,"6":0.6516363938202776,"7":-0.1738929477268032,"8":-0.015033400851902657,"9":-0.034587319308160495,"10":-0.08049301418916352,"11":-0.14090882805717841,"12":-0.34830119351976274,"13":0.5365209023666676,"14":0.028192472470670457,"15":0.4358261368854245,"16":0.6003138650607265,"17":0.04370857379100526,"18":-0.11353574380778814,"19":0.3411608926992307,"20":-0.608406681559301,"21":-0.021431777247084033,"22":-0.17534544793608725,"23":-0.03676313880346779,"24":-0.5232447233117086}},{"sx":1,"sy":1,"depth":25,"w":{"0":0.46178064726513807,"1":-0.3017407080101446,"2":0.33225172476780396,"3":-0.4494911356207779,"4":-0.4831926728873218,"5":-0.2736306994820847,"6":-0.8915037164450332,"7":-0.6229649161698555,"8":-0.8309443537859014,"9":-0.38411480020486277,"10":0.006444079946216216,"11":0.3777050064410124,"12":0.2479960589167624,"13":0.26191038958260693,"14":0.6917779063634651,"15":0.22556090154483396,"16":-0.3188391627055849,"17":-0.904413046156693,"18":-0.5092927278488152,"19":-0.5062997255158496,"20":-0.11187066674886602,"21":0.34953592346279994,"22":0.20811851950945587,"23":0.07816298659993,"24":-0.503968647661942}},{"sx":1,"sy":1,"depth":25,"w":{"0":-0.4849559516633444,"1":0.10507176349091933,"2":-0.16154132402893626,"3":0.102406015090255,"4":-0.16467093153065857,"5":-0.48223073685927176,"6":-0.5740391696857088,"7":-1.1928500295346451,"8":0.12254711002807409,"9":-0.09789250343947649,"10":-1.1724183398670431,"11":-0.11104135511956571,"12":0.13698102163016768,"13":0.592565296157418,"14":0.18123840656884307,"15":-0.2439015404213995,"16":0.4447588428945479,"17":-0.06542331619188348,"18":-0.1814840499766597,"19":-0.44859758181500337,"20":-0.19255438345061168,"21":-0.269746836064918,"22":-0.2692452076176776,"23":0.8185603734769137,"24":0.07844839271895492}},{"sx":1,"sy":1,"depth":25,"w":{"0":0.4396941195521247,"1":0.025042637078249375,"2":-0.16226339069898454,"3":-0.4884440604131552,"4":0.28914056558194884,"5":-0.047402929375446254,"6":0.31629041107363015,"7":-0.26559199830851205,"8":-0.7068854891300642,"9":0.33357858248577565,"10":0.12483501515557612,"11":-0.28424455755018435,"12":-0.817840758542012,"13":-0.5371410950744604,"14":0.3559288246505309,"15":0.18096937515297357,"16":0.23218236430563446,"17":-0.33612208114331305,"18":-0.04422688624865215,"19":-0.18374814050332855,"20":0.17477193786586023,"21":-0.428180831430105,"22":0.3037114951478522,"23":0.43278391666635824,"24":-0.7874280155983812}},{"sx":1,"sy":1,"depth":25,"w":{"0":0.3499817722685173,"1":0.36038415064110185,"2":0.12657660080231029,"3":-0.3082498905394791,"4":0.056048298481342754,"5":0.6433719024486461,"6":-0.2429363445405691,"7":0.7306425843810829,"8":0.25832972605747906,"9":0.14894861225911382,"10":0.24784993588440243,"11":0.21713683581320603,"12":-0.47716843253443597,"13":-0.3778801968001655,"14":0.25394758907192483,"15":-0.9759930448327517,"16":-0.639017741056526,"17":-0.12516659108322953,"18":-0.15992727313597838,"19":0.7625702099058358,"20":0.18759145643311756,"21":0.38866465698660624,"22":-0.6611697640600516,"23":0.06807812303828217,"24":0.5424815885115299}},{"sx":1,"sy":1,"depth":25,"w":{"0":-0.13233056579767033,"1":-0.3207472528086889,"2":-0.10480903139667058,"3":0.3854704330794565,"4":0.041158057445026965,"5":-0.06388933295241261,"6":0.23909052786266585,"7":0.2071641932525672,"8":0.4438206566762373,"9":-0.14879616363959913,"10":0.07430368821915241,"11":-0.3145001908424638,"12":0.06130667304685091,"13":0.1987803203012974,"14":-0.30442923947567646,"15":-0.5643084714905022,"16":-0.40920108624633905,"17":-0.10889481861950848,"18":0.13326577339155674,"19":0.01426844899058035,"20":-0.2856072858528724,"21":-0.32601268197899574,"22":-0.03879748086689938,"23":0.3606313552826975,"24":-0.10237435905708}},{"sx":1,"sy":1,"depth":25,"w":{"0":-0.5567809133246425,"1":-0.44022847028150075,"2":0.048738678308666766,"3":0.36363630973001293,"4":0.35476545453132785,"5":-0.015081835139816426,"6":-0.365124700258047,"7":0.5292106761784762,"8":-0.045326799216060164,"9":-0.04099597980804778,"10":-0.3901017975769203,"11":-0.39628166672727627,"12":-0.07254120686230638,"13":-0.5490834779476151,"14":-0.21437154306839537,"15":0.12809501253063021,"16":-0.18691374134125602,"17":-0.4507767021993275,"18":-0.02836488076406093,"19":-0.054217158047625426,"20":-0.35009274098471266,"21":-0.07410589486764507,"22":-0.3688040355380024,"23":-0.019865910205269458,"24":-0.2895280324306313}},{"sx":1,"sy":1,"depth":25,"w":{"0":-0.016929475565603314,"1":0.2295015282089405,"2":-0.207050266732697,"3":-0.15771793435563106,"4":0.3453470671385615,"5":-0.35294050825011597,"6":0.5968518078090277,"7":0.3323837064806496,"8":0.02551747126663728,"9":-0.2209900071369686,"10":0.07346748653690721,"11":-0.1419245949634589,"12":-0.14690219161357143,"13":-0.13358506807343984,"14":-0.09712596761502408,"15":0.1816314608933197,"16":0.49588785102218635,"17":0.4021814021815937,"18":0.19519132080696355,"19":0.3813069852573535,"20":-0.41773299316209933,"21":0.20467360831557216,"22":-0.017333358059669565,"23":-0.3020212232499448,"24":-0.004384900408707912}},{"sx":1,"sy":1,"depth":25,"w":{"0":0.5413431533085947,"1":0.20634405845976608,"2":-0.14296501023991254,"3":-0.6356032652850858,"4":0.1745673718951444,"5":0.15856351313583442,"6":0.12842144503789288,"7":0.21740650085878443,"8":0.4426280190462886,"9":-0.24985848103267957,"10":0.2178807306703277,"11":0.03339504963664069,"12":-0.23469412021051644,"13":-0.06996217864028415,"14":-0.1269854502070961,"15":-0.17431206613815164,"16":-0.24991905204190762,"17":0.1965504193253988,"18":-0.0283574271176729,"19":0.44379055891182245,"20":-0.3414476448974579,"21":0.3857310000396218,"22":-0.03243814954367147,"23":-0.1605396600238507,"24":-0.2430897166437269}},{"sx":1,"sy":1,"depth":25,"w":{"0":-0.022690130050986242,"1":-0.17956907515108214,"2":-0.22336285335897346,"3":-0.10044795185850486,"4":-0.2230508635132872,"5":-0.3052845434079221,"6":0.12714095448792473,"7":0.23708857009800324,"8":-0.20704622867372688,"9":-0.2555816155640564,"10":-0.22876113267802528,"11":-0.026350068519523987,"12":-0.3276809111303622,"13":0.44269027787253823,"14":-0.053191295660126724,"15":-0.22670986442699048,"16":-0.40594234522102646,"17":0.43803213629747845,"18":0.07757359150210913,"19":0.13226191248322283,"20":0.19404776298811885,"21":-0.1042092183452263,"22":-0.6689860412238581,"23":0.071437082133152,"24":-0.13715184660199523}}],"biases":{"sx":1,"sy":1,"depth":25,"w":{"0":-0.16180368532569628,"1":0.09223414528635308,"2":0.03129920941493726,"3":0.07790876023944153,"4":0.06315100376228605,"5":-0.026833137619392627,"6":-0.16474208323181383,"7":-0.02917134650439603,"8":0.18718472773186662,"9":0.2912167773462646,"10":-0.328598414863695,"11":-0.3419273716618201,"12":-0.0015549572604818714,"13":0.09654298273535421,"14":0.06678169286806224,"15":-0.14162376820524059,"16":0.22533506342404228,"17":0.15633885304222206,"18":-0.3529525993532963,"19":-0.2533712627490016,"20":0.06488501097944001,"21":0.16534927935608681,"22":-0.14317178609644068,"23":0.07378265983490162,"24":0.15613987468363827}}},{"out_depth":25,"out_sx":1,"out_sy":1,"layer_type":"relu"},{"sx":1,"sy":1,"stride":1,"in_depth":25,"out_depth":25,"out_sx":1,"out_sy":1,"layer_type":"conv","l1_decay_mul":0,"l2_decay_mul":1,"pad":0,"filters":[{"sx":1,"sy":1,"depth":25,"w":{"0":0.023482992821853472,"1":-0.0504432167488535,"2":-0.007988699150135439,"3":-0.22780999362541832,"4":0.1880417001432133,"5":-0.1444693042439874,"6":-0.13746374967197947,"7":0.24017828747191247,"8":-0.04206433385713948,"9":0.24608104443043868,"10":0.45177378972975224,"11":0.10898003117761478,"12":0.16485629068127727,"13":-0.2269650994142209,"14":-0.057457778147309624,"15":-0.5439920387441223,"16":-0.1505655065883509,"17":0.07551670745978759,"18":-0.10915635702339428,"19":-0.22780164164860717,"20":-0.364328781491183,"21":-0.07336666151423227,"22":-0.013366760577165862,"23":0.12986665777349551,"24":-0.1744550958894946}},{"sx":1,"sy":1,"depth":25,"w":{"0":-0.11627158759052475,"1":-0.23851985562163294,"2":-0.33145001355882214,"3":0.3148104600026257,"4":0.1317431946791499,"5":0.07990954504117244,"6":-0.2445001838583279,"7":0.435981475517477,"8":-0.2793413198586835,"9":0.31931631926021764,"10":-0.0883682185444208,"11":-0.08009451801185936,"12":-0.1380321764411167,"13":0.5013481352433238,"14":-0.006941001027298346,"15":0.08605683322756635,"16":0.4673272258094724,"17":-0.013684879100075686,"18":-0.02219084112180224,"19":0.08503214769777055,"20":-0.12091235217869645,"21":-0.07118323069588332,"22":-0.2624938904603093,"23":-0.3462607632425211,"24":-0.006943284113029291}},{"sx":1,"sy":1,"depth":25,"w":{"0":-0.05372689753945412,"1":-0.04902220765083136,"2":-0.1741076393063816,"3":0.2901847967501706,"4":0.08090020980394383,"5":0.03264586015844842,"6":-0.13669604923851203,"7":0.0716248061712123,"8":-0.149016797586049,"9":0.10431645300449983,"10":-0.0654996222603519,"11":-0.383636764294429,"12":0.0919876737313895,"13":-0.1727252057464406,"14":0.0222232674548223,"15":0.059936374804335994,"16":0.19809988158748731,"17":-0.15840749388612815,"18":0.09720034286182078,"19":-0.14465079947468312,"20":0.17504795027646752,"21":-0.013591775303327867,"22":-0.19811563523225156,"23":-0.15733636666630568,"24":-0.1410746312595789}},{"sx":1,"sy":1,"depth":25,"w":{"0":-0.12656535901397667,"1":0.12126772694527149,"2":-0.210568757854311,"3":0.2190862757473501,"4":0.03717823352135208,"5":-0.23633655951847665,"6":0.0932083279775373,"7":0.17215759229078337,"8":0.29596532945170334,"9":-0.4926868188636745,"10":0.08581755416090248,"11":0.21771686305780813,"12":0.016791812042669312,"13":-0.11237323986342845,"14":-0.11622751485530017,"15":0.032349009673169546,"16":0.18970878426570506,"17":-0.08539620203921698,"18":-0.16264910828927232,"19":-0.032711855950896,"20":-0.013508996392071915,"21":-0.12749365417978892,"22":-0.06139635665723202,"23":-0.19595956053912655,"24":0.19280863402069742}},{"sx":1,"sy":1,"depth":25,"w":{"0":-0.2725495509691554,"1":-0.07991228189522871,"2":-0.15901246502868563,"3":-0.30563217886758354,"4":0.30737063916657326,"5":-0.4507060727969225,"6":0.18423766132082656,"7":0.004284395094056283,"8":-0.30699466739279996,"9":-0.2718745673291907,"10":-0.11750092983226398,"11":-0.032335469610029886,"12":-0.10459078124897904,"13":0.0417530098092561,"14":0.19497215932541745,"15":-0.14166806172270233,"16":0.1995590575829008,"17":0.02945897607353127,"18":-0.26659717636032443,"19":0.18387655270329237,"20":0.0030129569480948286,"21":-0.1804359184924887,"22":0.08550508358475592,"23":-0.3824345469582732,"24":0.3263550266759533}},{"sx":1,"sy":1,"depth":25,"w":{"0":-0.10582854127645078,"1":-0.1563019463474083,"2":0.25515263455718795,"3":-0.33012842281758126,"4":0.05331826044888405,"5":-0.21413288805099182,"6":0.0018144745405070661,"7":0.23689849269989585,"8":0.06587489048491837,"9":-0.05145610253563889,"10":-0.04466478638203769,"11":-0.005153161211931551,"12":0.007748588078281446,"13":0.22921453049137602,"14":0.16512471925200167,"15":0.7943572897150967,"16":0.15464815004504753,"17":-0.1974850174964729,"18":-0.050771786430317975,"19":-0.6282718051450438,"20":-0.010168049803181738,"21":0.11088170579952054,"22":0.6903057569670477,"23":-0.09278847495366208,"24":0.0812945811325268}},{"sx":1,"sy":1,"depth":25,"w":{"0":-0.22452333470110103,"1":0.02868013052003408,"2":-0.1291547028946578,"3":-0.14019716074875904,"4":0.10858541998719433,"5":-0.09235184401311516,"6":0.02189384247880398,"7":-0.4230752543518432,"8":-0.022703438438840078,"9":-0.21770206561643773,"10":0.0999132292062649,"11":-0.04330796153133435,"12":-0.16260807847652495,"13":0.01413700957487658,"14":-0.05054931710875502,"15":-0.13707154463789578,"16":-0.18469506051713852,"17":0.17013163609974766,"18":-0.06651028971837035,"19":-0.2949412907059666,"20":0.17357242248096777,"21":0.02129759807748732,"22":-0.42443203075829855,"23":-0.13955763508679989,"24":0.15813931059721512}},{"sx":1,"sy":1,"depth":25,"w":{"0":0.03396810465572234,"1":0.4891354828368381,"2":0.01353902432312432,"3":0.4078188793202379,"4":0.24681455163036173,"5":-0.2554359694016955,"6":-0.6027922488633548,"7":-0.0460795924185726,"8":-0.2943486512806802,"9":-0.024428140637275556,"10":-0.20429291889094406,"11":-0.10026089308294892,"12":0.4055297489246538,"13":0.28512662040705666,"14":-0.38906211305562194,"15":-0.016092166695241442,"16":0.29452375776672723,"17":-0.027804978244262403,"18":-0.04987307936096462,"19":-0.09086980816831679,"20":-0.10965870446676579,"21":-0.4102390295983389,"22":0.20065340103187151,"23":0.01636451994602714,"24":-0.05846242156403973}},{"sx":1,"sy":1,"depth":25,"w":{"0":-0.04885104175732417,"1":0.07270046043860035,"2":0.032671043873409744,"3":0.13113557070749576,"4":0.18383910509776638,"5":0.1346627177042273,"6":-0.17510540906819155,"7":0.023409736530731782,"8":-0.0810861874143719,"9":0.14855548367885826,"10":-0.13478222521971536,"11":-0.34594270660688314,"12":0.031914725661529676,"13":-0.19892180911979634,"14":-0.16409470264260115,"15":0.1406499234323468,"16":0.3094967380518074,"17":-0.039107957837670765,"18":-0.09861347948408798,"19":0.1149190263198406,"20":-0.35795430040874787,"21":0.16229805320844332,"22":-0.172926149431112,"23":-0.4697684358437009,"24":0.1420167696464821}},{"sx":1,"sy":1,"depth":25,"w":{"0":-0.428784305810382,"1":0.22246514170443824,"2":-0.18153068597861605,"3":0.16243919158674627,"4":-0.16539746822344417,"5":-0.4219735072350547,"6":-0.1433541657035937,"7":0.20842685341529482,"8":-0.3113375539553791,"9":0.1161708323997853,"10":-0.41255793674124014,"11":-0.037104783337339665,"12":-0.014605898355775524,"13":-0.1317477464944133,"14":0.39942336531616135,"15":-0.29186514283855997,"16":0.12438658811218124,"17":-0.014834019247211517,"18":-0.011996388579906174,"19":0.17393268441164678,"20":-0.09815710366792864,"21":0.11925751164047464,"22":-0.13272944333309789,"23":-0.14751024040550786,"24":-0.11254378755729803}},{"sx":1,"sy":1,"depth":25,"w":{"0":-0.08331052803798762,"1":0.010378967615368379,"2":0.3611122449607426,"3":0.0869754141373551,"4":-0.05247234521989745,"5":-0.3332829738227787,"6":-0.17021559844602457,"7":0.32171320549023735,"8":-0.07890922591209198,"9":-0.10081331082681295,"10":0.15960146947551102,"11":0.07931750774841517,"12":0.007431435232218795,"13":-0.1601501360443541,"14":0.012017225108603096,"15":0.06737071363033573,"16":-0.20869330684588472,"17":-0.2781449140691635,"18":-0.2731295842016514,"19":-0.18677804068180795,"20":-0.009380490036539842,"21":-0.12229188280492888,"22":-0.15409185162621705,"23":0.14063427674475065,"24":0.01784564391177745}},{"sx":1,"sy":1,"depth":25,"w":{"0":0.01721117841985944,"1":0.1950772809574873,"2":-0.15397122682865028,"3":-0.20750791936491353,"4":0.25008014024101577,"5":0.010924264724854159,"6":0.09211555670698282,"7":-0.07375184521734611,"8":-0.05262515233215485,"9":0.24531565661242116,"10":0.0032602659538755493,"11":0.23670360189573514,"12":0.3068236583479495,"13":0.0461822572673601,"14":-0.11700205376044846,"15":0.5595175337210162,"16":0.1752263458683926,"17":-0.30531607585651777,"18":0.11744295343174893,"19":-0.18433715323367736,"20":-0.1907395522286601,"21":-0.3682919188856914,"22":-0.3332711136275354,"23":0.2888075324816047,"24":-0.5377368180277885}},{"sx":1,"sy":1,"depth":25,"w":{"0":0.17246731241988042,"1":0.2694749210250149,"2":-0.25716460314398476,"3":-0.10368921063590536,"4":-0.2545553438832431,"5":0.04373751342018569,"6":-0.08738558698792656,"7":0.12373499789766311,"8":0.44142917004138865,"9":-0.051874472558600775,"10":0.013639285319734799,"11":-0.3637021226427272,"12":-0.39928843771937295,"13":0.027140908745210388,"14":-0.12754385751435404,"15":0.08671673816347084,"16":-0.2930534341724618,"17":0.0882249633268896,"18":0.14315596233263866,"19":-0.020090655977090102,"20":0.34907087249492863,"21":0.05691575925092853,"22":-0.22670050797345456,"23":0.12239498511219034,"24":-0.26740385400168115}},{"sx":1,"sy":1,"depth":25,"w":{"0":0.2199869384164429,"1":-0.09256717097646917,"2":-0.027267227622855893,"3":0.35737763470724254,"4":0.203394378670197,"5":0.04373869786473285,"6":0.1629402813993974,"7":0.19591828785723175,"8":0.23334460368762816,"9":0.343180302580905,"10":0.4014795310904533,"11":-0.009408193109512856,"12":0.10585308385177193,"13":0.0196021574749157,"14":-0.360841438554641,"15":-0.2374601974131091,"16":-0.1524807573143742,"17":0.41038371686217306,"18":-0.2818890127348417,"19":0.4747392377709512,"20":0.016937686521720813,"21":-0.5690096947993685,"22":-0.13588544748255565,"23":-0.13417075487150606,"24":-0.09246499890804037}},{"sx":1,"sy":1,"depth":25,"w":{"0":-0.2077956428819075,"1":0.348777458709394,"2":0.09204287856499217,"3":0.08654913876791681,"4":-0.09324226986872489,"5":-0.06850316776456931,"6":-0.2388985890465441,"7":0.3042071708117107,"8":0.18424414881958923,"9":0.2918713165516862,"10":0.20740007354574502,"11":-0.016495715864234387,"12":-0.2002101433412902,"13":-0.021794463018938625,"14":-0.46214247900427463,"15":0.6116148963776468,"16":-0.1293416572721748,"17":-0.10101202687444859,"18":-0.006192517705033738,"19":0.11304298454119864,"20":0.2927231457784645,"21":0.17176028105513752,"22":-0.028521771970541496,"23":-0.07388195197858681,"24":-0.015613037956511186}},{"sx":1,"sy":1,"depth":25,"w":{"0":0.028013079830251048,"1":0.3724716767754491,"2":0.3960669903854028,"3":-0.0992539184802259,"4":-0.1379363929770857,"5":-0.7744593764750105,"6":0.0011709468835115876,"7":-0.46656034636913934,"8":-0.39852556138490164,"9":0.004995412324354076,"10":0.062470056201213126,"11":0.358901450255106,"12":0.5031382443072676,"13":0.2235496021424288,"14":0.06561215821661569,"15":0.2097183546954784,"16":0.34159804231638813,"17":-0.49146658191706255,"18":-0.1898005951966862,"19":0.09405376180798097,"20":-0.7047311487923309,"21":-0.26786576804794626,"22":0.58542257586413,"23":0.3317476732760502,"24":-0.4140665410039619}},{"sx":1,"sy":1,"depth":25,"w":{"0":-0.17293961648477504,"1":-0.002328560379240681,"2":-0.005793052834235946,"3":0.34679426859824375,"4":-0.2721514487251378,"5":0.1628270013937908,"6":0.002337506187205173,"7":-0.06155912415718198,"8":0.20882937391862302,"9":0.4793816640474999,"10":0.08736845171108523,"11":0.2496448406202175,"12":-0.16178096289801663,"13":-0.007303472280312872,"14":-0.2251476423921648,"15":0.2676473311308335,"16":0.23205401607482953,"17":0.3711864608214042,"18":0.09713087199510545,"19":0.06527490793713218,"20":-0.36115690014157403,"21":0.03630869668360765,"22":-0.1820112173539259,"23":0.031953139034700165,"24":-0.008912392402119372}},{"sx":1,"sy":1,"depth":25,"w":{"0":-0.16147949806775944,"1":-0.3961657971029446,"2":0.11954920476714925,"3":-0.02963135487041392,"4":0.1295457292115683,"5":-0.05831145138319301,"6":-0.11956058476999276,"7":-0.21357546158066493,"8":0.160794098494408,"9":-0.026012850911853406,"10":0.04498733283688135,"11":0.16120492546553625,"12":-0.23486016606086893,"13":-0.1550447668197351,"14":-0.03566715922276462,"15":-0.05966971928092561,"16":-0.008676055066285937,"17":0.2823139183262474,"18":0.3581581828810962,"19":0.08068362939188999,"20":-0.14855944494743165,"21":-0.17602374042536506,"22":-0.26722908460360484,"23":-0.07712700564717431,"24":-0.1399523173073586}},{"sx":1,"sy":1,"depth":25,"w":{"0":-0.47915271699996087,"1":-0.5511374572084098,"2":-0.2864309685791229,"3":0.27937925832817806,"4":-0.4574018946886675,"5":0.1894555197070648,"6":0.13000725111313224,"7":0.17140963439265505,"8":0.46345490707501646,"9":0.06599571085354607,"10":-0.22220146184848802,"11":-0.017302541928650682,"12":0.03208978362567579,"13":-0.19821540980190788,"14":-0.04823334080252071,"15":0.06054584253226529,"16":0.4032558161137473,"17":0.3297671815527001,"18":0.33615172193787757,"19":-0.4644851426288285,"20":-0.12059162933039703,"21":0.3014579382672687,"22":0.00550499107492567,"23":-0.3069204030387197,"24":0.0916843367052577}},{"sx":1,"sy":1,"depth":25,"w":{"0":-0.5454653046119785,"1":0.02117095232496299,"2":-0.24245656345653657,"3":0.09523046939781135,"4":-0.26703372085910176,"5":0.1853483370837813,"6":-0.0134538651312089,"7":-0.09849701094485183,"8":-0.016207324097651157,"9":-0.13334925299381672,"10":-0.07767504391258351,"11":-0.049530603795555614,"12":0.2784491821062657,"13":0.09835553942479751,"14":-0.11738644260202762,"15":0.05153444136439542,"16":0.3896577451949448,"17":0.5365146075881119,"18":-0.031170028328540298,"19":-0.38099973735890297,"20":-0.09756999904058995,"21":-0.2949330938540992,"22":-0.19739465531895328,"23":-0.08018550792302684,"24":-0.19300882371867542}},{"sx":1,"sy":1,"depth":25,"w":{"0":-0.09168029043758315,"1":-0.19225646465334334,"2":0.24194332583480718,"3":0.4315963119691717,"4":-0.18782211831586992,"5":0.5760546338884117,"6":0.4453904132748424,"7":0.19975463163329216,"8":0.30322045448055707,"9":0.5250302564237087,"10":0.0529804436800345,"11":-0.16076957689774862,"12":0.3223701940885762,"13":0.034119809668041096,"14":-0.4114840208923705,"15":0.3184123653881628,"16":-0.05332030654032067,"17":0.40571035140317496,"18":-0.45194819275741377,"19":0.11462473237461707,"20":0.2288484374027953,"21":-0.4689943069308858,"22":-0.2824164135621778,"23":-0.1930850383980414,"24":-0.010253218037566894}},{"sx":1,"sy":1,"depth":25,"w":{"0":0.059509996379334115,"1":-0.2401507260823628,"2":-0.0781801197185363,"3":-0.18425922903714678,"4":0.17864807462068572,"5":-0.17002884113509878,"6":0.04108551211941663,"7":0.19283210684389943,"8":-0.19053515222958897,"9":-0.09172170450216807,"10":-0.18207051204089666,"11":0.12467366704128176,"12":0.07190718248512377,"13":-0.06654286693088741,"14":-0.10932223392124837,"15":0.20853461645292964,"16":0.25586575381628596,"17":0.08137165940834365,"18":0.07253229031373716,"19":-0.2593996333696079,"20":-0.16903786116710648,"21":-0.3429157616471248,"22":0.3049319146060138,"23":-0.009962553676194454,"24":0.030808261801792847}},{"sx":1,"sy":1,"depth":25,"w":{"0":0.022260508970135665,"1":-0.16828101627526654,"2":0.004907835931020098,"3":0.08343893412499935,"4":0.40036487843538776,"5":0.05377211481765574,"6":0.019970115650779798,"7":-0.009066123937627053,"8":-0.16270733234801815,"9":-0.23378668375536416,"10":0.3485493433994974,"11":-0.0678188156215031,"12":-0.05214480413265701,"13":0.37806538159395536,"14":0.047185958456353934,"15":-0.009267813243563287,"16":0.3075062023271721,"17":0.1746364730205853,"18":-0.2536681871279453,"19":-0.21588336248162454,"20":0.07086377514674841,"21":-0.3830576926246269,"22":-0.0012452974502235557,"23":-0.16795415622303642,"24":0.000008978894238025216}},{"sx":1,"sy":1,"depth":25,"w":{"0":-0.007010833445117301,"1":0.07023080981325452,"2":-0.5200804546501403,"3":0.059578365571473064,"4":0.10685468390662906,"5":-0.32398520513444146,"6":0.02549339957580135,"7":0.06320890637448753,"8":-0.1757577341803511,"9":0.08475087385560076,"10":0.17385888855618556,"11":1.0260328262882024,"12":0.13118543687727385,"13":0.2395257902743823,"14":0.18582883335747996,"15":0.36256600446243636,"16":0.10043580762422553,"17":-0.6666712337504856,"18":-0.2927718403699414,"19":0.1268667420768236,"20":-0.4812014811514978,"21":-0.16660803532739668,"22":0.3360896486376149,"23":0.4929405379413472,"24":-0.3982042219543591}},{"sx":1,"sy":1,"depth":25,"w":{"0":-0.2287129293898441,"1":0.06668756525137742,"2":0.125960920351856,"3":-0.35004373542802997,"4":-0.14761221089650547,"5":0.20715912921756147,"6":0.19738710122769298,"7":-0.0775867785342618,"8":-0.48693254319211077,"9":0.09684553995947408,"10":-0.0010987649643197706,"11":-0.06633941248797781,"12":0.23458226708045132,"13":0.3381564270776937,"14":-0.016683799749915258,"15":0.10864226760354675,"16":0.18446617831798964,"17":-0.23374001950464793,"18":0.01532709774518594,"19":0.005425073230930725,"20":0.11460819442581913,"21":-0.05824515475538329,"22":-0.41464367724082135,"23":-0.09552757865210826,"24":0.23180902645980972}}],"biases":{"sx":1,"sy":1,"depth":25,"w":{"0":0.07666880350568372,"1":0.5006096053879969,"2":0.08976503338444088,"3":0.1337405188000102,"4":-0.002506921086708604,"5":0.34261352754314583,"6":-0.03413625154985253,"7":1.0615101947858652,"8":0.11770768003694315,"9":0.05807235335203556,"10":0.09506569615626549,"11":0.6432786030700641,"12":0.3258316306376862,"13":2.8551666838264134,"14":0.7347730842919502,"15":0.9155055118733185,"16":1.6802828012402988,"17":0.06780372752272906,"18":0.31747596618856755,"19":0.1684851888277368,"20":3.079897773656194,"21":0.04214935628529805,"22":0.2988454951757905,"23":1.6126799538715733,"24":0.029080010125353457}}},{"out_depth":25,"out_sx":1,"out_sy":1,"layer_type":"relu"},{"out_depth":120,"out_sx":1,"out_sy":1,"layer_type":"fc","num_inputs":25,"l1_decay_mul":0,"l2_decay_mul":1,"filters":[{"sx":1,"sy":1,"depth":25,"w":{"0":-0.14160213472141941,"1":0.31135744550253536,"2":-0.30374797005139637,"3":0.04126779434637838,"4":0.21079809910964678,"5":-0.06750643371039125,"6":-0.13666905450693306,"7":0.40661593085605174,"8":-0.26067455167388703,"9":-0.023333439654354065,"10":0.1683364359994266,"11":0.030409176397185714,"12":0.0781347866737892,"13":-0.2055474812795668,"14":0.04236209083494112,"15":-0.09050794757041002,"16":-0.18697566771518032,"17":0.3144745261595101,"18":-0.2837115809906004,"19":0.16399863914944635,"20":0.06315883346823425,"21":0.024223718782879974,"22":0.00928245604957844,"23":-0.2542744015247616,"24":-0.029560230763572115}},{"sx":1,"sy":1,"depth":25,"w":{"0":0.11545836968881572,"1":-0.17269830030615405,"2":0.42984577057786255,"3":-0.06446201704195274,"4":0.29036756226214155,"5":0.12830471511501323,"6":-0.3590127816111622,"7":0.2024522981553564,"8":0.1430696639345159,"9":-0.14441170629463318,"10":-0.04606760023494912,"11":-0.20090464493044596,"12":-0.10735722774699116,"13":0.06811567816622524,"14":-0.034228392956181755,"15":-0.08311956426541738,"16":0.12332446946828872,"17":0.3095403025195143,"18":0.16709321763199436,"19":0.272800229353967,"20":0.07350157883827038,"21":-0.23268193115312633,"22":0.039310542318121686,"23":0.007493469822244615,"24":-0.2136722572301397}},{"sx":1,"sy":1,"depth":25,"w":{"0":0.12638403686015323,"1":0.32252912169436326,"2":0.11895713065391786,"3":0.08066522337150843,"4":0.04626083047102288,"5":-0.02875208068403761,"6":-0.2259158825899908,"7":-0.11998697603238108,"8":0.11900078110468834,"9":-0.16015594675519113,"10":0.0044105941925430495,"11":0.19419725285426076,"12":0.03074502561570069,"13":-0.07627073838957593,"14":0.1916209755439763,"15":-0.3356083717877167,"16":-0.3220131173422261,"17":0.14424679149694491,"18":-0.11537006196521808,"19":-0.06007742254416162,"20":-0.18939811877091872,"21":-0.2745146410690252,"22":0.0764610319099563,"23":0.1396322202151745,"24":-0.4742791867564711}},{"sx":1,"sy":1,"depth":25,"w":{"0":-0.0674613521835152,"1":0.18886231031625964,"2":-0.07659546199909806,"3":-0.43865249915266946,"4":0.08070122463613529,"5":0.13875198889238755,"6":-0.20920582641229318,"7":0.29752419516410744,"8":0.018958692268804343,"9":0.17640760690127757,"10":-0.13637438133126228,"11":0.09780806866644512,"12":-0.020670607540063238,"13":0.3790008559335748,"14":0.19593582599333187,"15":0.1698906240810666,"16":0.14928685551954285,"17":0.008613423571584325,"18":0.10165114272460919,"19":-0.2396448156463745,"20":0.30962876828889346,"21":0.22464170497229935,"22":-0.019320522617640393,"23":0.7190280502774153,"24":-0.024934578476394364}},{"sx":1,"sy":1,"depth":25,"w":{"0":0.03666568228102999,"1":0.2403720254152065,"2":-0.010458804539677785,"3":-0.0990043475500799,"4":0.09307210024895102,"5":0.20147536444517966,"6":-0.15397925795036832,"7":-0.08297223087624464,"8":0.23868040056627468,"9":-0.21406813944125333,"10":-0.27814483576072857,"11":0.29109358672724606,"12":0.2797915348435701,"13":0.4509326250629311,"14":-0.14288313176849374,"15":-0.23825541739500145,"16":0.02345983809008992,"17":0.013039058837287388,"18":0.44862642024794946,"19":0.6472609366393568,"20":-0.17803398171078166,"21":0.09782863354973459,"22":0.03440979113794645,"23":-0.0781632424434125,"24":0.050492485682968984}},{"sx":1,"sy":1,"depth":25,"w":{"0":-0.3634642281297371,"1":0.08012027662071242,"2":-0.25293807270786345,"3":0.02040511960916728,"4":-0.07381923415303566,"5":-0.280128134903181,"6":0.1062997311961605,"7":-0.2487691719258315,"8":0.02978564694009093,"9":-0.28027446307530757,"10":0.32722131374211916,"11":-0.4502267083246302,"12":0.04847970098009056,"13":0.14193359696099903,"14":0.11117282470467982,"15":-0.07836676287577996,"16":-0.14009461678140714,"17":-0.2918523533065593,"18":0.1165289947519226,"19":0.12409358855146682,"20":-0.20196956684455566,"21":0.001264553687750147,"22":-0.13465738995809562,"23":-0.267262985637916,"24":0.19570627900742033}},{"sx":1,"sy":1,"depth":25,"w":{"0":0.1437078842815062,"1":-0.3296234461705423,"2":0.3069148620012554,"3":0.23039249440829793,"4":0.16693960616210027,"5":-0.6482521802212536,"6":0.21593673385424259,"7":0.10950428304617532,"8":0.4790991462159479,"9":-0.1366144235943937,"10":-0.056690400894567596,"11":-0.049052728235464464,"12":-0.11237179356372903,"13":-0.38980739267962766,"14":-0.16588706359050584,"15":-0.11506838858089544,"16":-0.051774970649753914,"17":-0.21126553482554117,"18":0.08609149205362626,"19":0.05528262986282063,"20":-0.0982086406405782,"21":0.37427079409144864,"22":0.2568769993152859,"23":0.020748176757701218,"24":0.203871325828347}},{"sx":1,"sy":1,"depth":25,"w":{"0":0.11349902241980792,"1":0.22060916500825167,"2":-0.28173588600004945,"3":0.11239610580335598,"4":-0.2373238078955711,"5":-0.015971500995252998,"6":-0.10821376992072192,"7":0.40227549276847596,"8":-0.2832756674438517,"9":0.10595062528138384,"10":-0.04210676721145377,"11":0.06466290787921081,"12":-0.14391870855952885,"13":-0.032895425946265204,"14":0.06900217998268422,"15":-0.15975224666130283,"16":0.36078363172984906,"17":-0.06391029046024105,"18":0.3368016160442167,"19":0.1290115912811902,"20":0.15610011319526088,"21":-0.07728276340864038,"22":0.04955012708692991,"23":0.13876504164320716,"24":0.21244262281223858}},{"sx":1,"sy":1,"depth":25,"w":{"0":-0.1325777249623077,"1":-0.06718392902425603,"2":0.046277282436774446,"3":0.23629528992819632,"4":0.5674144696032591,"5":0.00007439849744980708,"6":-0.15429340730683014,"7":0.13080099927638167,"8":-0.05240072662073649,"9":0.4040142648617198,"10":0.3140956612134385,"11":-0.16284433074714327,"12":0.24505752768549002,"13":0.44807329679920954,"14":0.05015301722750833,"15":0.1679197551063559,"16":0.20783496648837418,"17":0.19579424354078875,"18":-0.21656367074946822,"19":0.12932258325477958,"20":0.3613543405655275,"21":-0.09212369374657713,"22":0.08519921039696308,"23":0.32398226886761883,"24":0.25518253039599803}},{"sx":1,"sy":1,"depth":25,"w":{"0":0.24380205882958111,"1":-0.12031217645171043,"2":0.17419923680581442,"3":-0.1698399949645199,"4":0.08375074498402595,"5":0.12281400814180814,"6":0.1693581217830948,"7":-0.1398749200573863,"8":-0.3327331754647847,"9":-0.1300159239424838,"10":-0.04089659215744105,"11":-0.1136358714807087,"12":0.11587125504265718,"13":0.21497206386709744,"14":0.13587215052985516,"15":-0.057508459255735514,"16":-0.12033950264489422,"17":-0.0949131050180101,"18":0.017914635094288152,"19":-0.17742980635429037,"20":-0.30137627204566053,"21":-0.10740784285403962,"22":0.18426880148272312,"23":-0.20590269644494702,"24":-0.4079627732592527}},{"sx":1,"sy":1,"depth":25,"w":{"0":0.09963238928923702,"1":0.04908736141615204,"2":0.2596116997823246,"3":0.12200087476845774,"4":0.0795454126228785,"5":0.06498653352072166,"6":0.17893698621224255,"7":-0.3432666480554408,"8":0.14726361887951378,"9":-0.15449050576319606,"10":0.24437976713234105,"11":-0.059230716932230996,"12":-0.2501796867540281,"13":0.016599500594536274,"14":-0.2438514490457464,"15":-0.2386758200820513,"16":-0.11947354744820374,"17":-0.213769292587979,"18":-0.1045073207457594,"19":-0.21759833111935245,"20":-0.18445491531696898,"21":0.12325048815366657,"22":0.05553369948826869,"23":-0.04091141054916331,"24":0.21724609925251134}},{"sx":1,"sy":1,"depth":25,"w":{"0":-0.18537669208754265,"1":0.5295610104796935,"2":-0.010903980014418762,"3":0.05320825968160315,"4":-0.07982793944772322,"5":0.2398404561761366,"6":-0.01427312883118049,"7":-0.05017154664417741,"8":-0.1543255360933027,"9":-0.04803759862418294,"10":-0.10694247731951703,"11":0.19639942655549572,"12":0.15076951581323528,"13":0.02434125898463337,"14":0.4617028432711204,"15":-0.0190366169659484,"16":0.038165510307724866,"17":-0.2367055321986392,"18":0.08033951885173758,"19":-0.018446614080252464,"20":0.14741484023590656,"21":-0.14396033180696838,"22":-0.16576674754444962,"23":0.08761439495697702,"24":0.23635471791417376}},{"sx":1,"sy":1,"depth":25,"w":{"0":0.12597471458099474,"1":-0.18558123121808306,"2":-0.0952816295968386,"3":-0.03635151389079345,"4":-0.015415565161207666,"5":0.18001287317193773,"6":-0.27923919933547064,"7":-0.006348384479058909,"8":-0.1874866233519278,"9":-0.10019027208167623,"10":0.23249344691738325,"11":-0.02536799197677732,"12":-0.2898945785471178,"13":0.23282195849215115,"14":-0.10694755796188128,"15":0.36690746428350335,"16":-0.24301349039870107,"17":-0.1730480993894873,"18":-0.5342317915555872,"19":-0.3044511687722367,"20":0.02548550581632443,"21":-0.14841276599681283,"22":-0.20302236644118057,"23":0.5552724483088737,"24":0.16629890771714728}},{"sx":1,"sy":1,"depth":25,"w":{"0":-0.1830906577546241,"1":0.23667414343732182,"2":-0.06176215408426835,"3":-0.050175605193882235,"4":0.18670224324436863,"5":0.20813529198120637,"6":0.13995939150229664,"7":0.03777033569436157,"8":-0.13006202955614135,"9":0.14133541542877404,"10":0.027061145195976143,"11":0.14725316210529832,"12":-0.016690689983426356,"13":-0.017416535197862015,"14":-0.15589019991548858,"15":0.19460601512577316,"16":-0.3115293673347497,"17":0.0606724046622366,"18":0.1199609893053796,"19":-0.17646746126630158,"20":-0.1435779832074273,"21":-0.06787278403971196,"22":-0.0018485741461601673,"23":0.01687598482889986,"24":-0.36639544083392395}},{"sx":1,"sy":1,"depth":25,"w":{"0":-0.36921987989927296,"1":-0.09179011776954721,"2":0.25909802151465483,"3":-0.07152801673280987,"4":-0.13112752904268232,"5":-0.10267228172787202,"6":-0.4366448207322619,"7":-0.055604521983630834,"8":-0.29190615996218455,"9":-0.06468497568079326,"10":0.1000668091331855,"11":-0.01042582725441097,"12":0.3328880353882946,"13":0.3075134314905373,"14":0.3750553730603476,"15":-0.33672043897039533,"16":0.15364121459718952,"17":0.1159279437740281,"18":0.0743367918619036,"19":-0.05944339377756891,"20":0.6376922520625818,"21":-0.22785029836897078,"22":-0.0975371702810733,"23":-0.13061358309329502,"24":-0.013400774463061762}},{"sx":1,"sy":1,"depth":25,"w":{"0":0.2191412289151567,"1":0.06902228331210934,"2":-0.039043081970648146,"3":-0.11084323174783776,"4":0.4174142468180877,"5":-0.11423611280533603,"6":0.13276079224425164,"7":-0.11146437774778777,"8":-0.20551691472621653,"9":0.19298842909550154,"10":0.11921953064541498,"11":0.06927269282868796,"12":-0.04832054947553391,"13":-0.09354596841344692,"14":0.440717802266901,"15":0.21185960678830748,"16":0.1828682955739601,"17":-0.2088694240008185,"18":-0.298173419554286,"19":-0.08099128905138474,"20":-0.25006382856910386,"21":0.26255418643484235,"22":0.07202244026884305,"23":-0.23142846644938067,"24":0.22236914969868465}},{"sx":1,"sy":1,"depth":25,"w":{"0":0.2531404743212113,"1":-0.1304226982970462,"2":-0.03549858751849309,"3":-0.20881875692694765,"4":-0.2665348574983336,"5":0.12409357385344788,"6":0.2491306530892573,"7":0.5008531252578605,"8":0.16689186577653028,"9":-0.17898966508815492,"10":-0.21558375280296166,"11":-0.011395981483649497,"12":0.1095426744046645,"13":0.008264209502538925,"14":-0.07310064478541115,"15":-0.07176649328111315,"16":-0.12771157988413273,"17":0.1665099087322771,"18":-0.13585335443072247,"19":0.3149958974750792,"20":-0.22614999039474745,"21":-0.36949531690788556,"22":-0.0582309550775736,"23":-0.042028550124086454,"24":0.029611576593465742}},{"sx":1,"sy":1,"depth":25,"w":{"0":-0.08296486904074417,"1":-0.012149217958107885,"2":0.04178976097441898,"3":0.13276615997357508,"4":-0.030216469869660915,"5":0.2196998631746097,"6":0.41521746145963684,"7":0.19478642335192933,"8":-0.055343189208805446,"9":-0.3648508281567055,"10":0.23200259223072517,"11":0.0380954600758532,"12":0.1712589172880473,"13":0.03533272428962755,"14":-0.22146002693200828,"15":-0.00025779243057379256,"16":0.12416986912409445,"17":0.4111802791208049,"18":-0.24593446811256053,"19":0.2544004583653358,"20":-0.3160343359644058,"21":-0.16003658395804105,"22":-0.04549545168549328,"23":0.04000557270718569,"24":0.08156964669936508}},{"sx":1,"sy":1,"depth":25,"w":{"0":-0.19858696967357956,"1":0.2240928885263091,"2":0.14378785141844866,"3":-0.09652475666199706,"4":0.12650902421706844,"5":-0.2933815428939867,"6":-0.18870822538371504,"7":0.09593016768174326,"8":-0.014234359046830241,"9":0.05624245252296919,"10":0.04712003913939972,"11":0.22355254939218364,"12":-0.08740385477035532,"13":-0.05427214878774704,"14":-0.2708432021609161,"15":0.4920718945597569,"16":0.1938717582473032,"17":0.22481159648206092,"18":-0.31081268013396685,"19":0.30026444640190597,"20":-0.15077891168239443,"21":-0.38979401892474147,"22":-0.010971103819758011,"23":0.04431048459032265,"24":-0.1668323887073737}},{"sx":1,"sy":1,"depth":25,"w":{"0":0.10349130923641164,"1":0.03172146213156018,"2":-0.23167837230967456,"3":0.35589646961590576,"4":0.07831108513390923,"5":-0.17500956331832634,"6":-0.13505470787849017,"7":-0.054208045758066516,"8":0.3192899744362146,"9":-0.1288194411479797,"10":-0.3971811291748939,"11":0.2395389541956523,"12":-0.25813009249744223,"13":-0.06687205294322421,"14":0.29701482835625864,"15":-0.07345175330398383,"16":0.1892781759832127,"17":-0.1175181244986221,"18":0.16664174255828954,"19":0.4606113803370797,"20":0.3118995824921247,"21":-0.17705989246053103,"22":-0.2156485409704194,"23":0.24025682862491513,"24":-0.19078921591749476}},{"sx":1,"sy":1,"depth":25,"w":{"0":0.37371748902455826,"1":0.04812555613811769,"2":0.4260908847753195,"3":-0.15431660524284174,"4":0.16179752201640027,"5":-0.1513528023305346,"6":-0.034488743276933326,"7":0.5781452797021345,"8":0.20647270535227832,"9":0.10868422310165224,"10":0.06411092876711486,"11":0.10972634839888916,"12":0.19213586237823926,"13":-0.06524751469650715,"14":0.31423949286100683,"15":0.4905840152162416,"16":-0.3965977352562629,"17":0.14053580525319434,"18":0.062436986341727764,"19":-0.012661267514666095,"20":-0.01444295244009594,"21":0.530297101157897,"22":0.017429159242001058,"23":0.1575355420942437,"24":0.02451942811643569}},{"sx":1,"sy":1,"depth":25,"w":{"0":-0.006420233903756389,"1":0.03344909969000343,"2":0.013064665590922443,"3":-0.156327778336301,"4":0.140849602348152,"5":-0.30502276797779554,"6":0.20694858356829132,"7":0.12711662989311548,"8":0.14462299784101712,"9":-0.20844362189783816,"10":-0.01378961967024256,"11":-0.12834400510325528,"12":0.04877747665100696,"13":-0.037693386440010045,"14":0.13507171375574917,"15":-0.19537310983172904,"16":-0.21628879463436038,"17":-0.02372880214814258,"18":-0.08085450074408622,"19":0.0871055594910374,"20":0.12148494399357394,"21":-0.17629950561464633,"22":-0.20360708429519533,"23":-0.25381031468699694,"24":0.1874812836073795}},{"sx":1,"sy":1,"depth":25,"w":{"0":-0.008993957230184374,"1":-0.344776696177135,"2":0.034240001579962,"3":0.17332840142613581,"4":-0.4734574311283546,"5":0.2654306989772255,"6":0.07744744914822184,"7":-0.3639054054189316,"8":0.037474701068988064,"9":0.13342376903961187,"10":0.15666495655923451,"11":0.12897349335656125,"12":0.06971971423746084,"13":-0.06497778338409743,"14":0.27138959444280275,"15":-0.19437714777389115,"16":-0.42227580497305256,"17":0.10453983966961643,"18":-0.15070796748137627,"19":0.061732835189955676,"20":0.005026699643650926,"21":-0.004944630249857818,"22":0.24290630445498015,"23":0.18058950353908426,"24":-0.20618723431180222}},{"sx":1,"sy":1,"depth":25,"w":{"0":0.023498383266199508,"1":0.2716981984067687,"2":0.10613683467424172,"3":-0.20832029243252378,"4":-0.25143144286437824,"5":-0.22581374557585956,"6":0.3059367055968358,"7":0.10733534928990045,"8":-0.19654889691797814,"9":0.009413354538963095,"10":-0.02771812277760155,"11":-0.18112855217599932,"12":-0.5416230882391591,"13":0.006970858776393881,"14":0.07568134544225362,"15":0.24884450862447652,"16":-0.18539972588652387,"17":-0.03678947841852636,"18":0.013129698500461823,"19":-0.14959916465375572,"20":-0.2850815899001716,"21":0.007232516713025996,"22":-0.12918414497893155,"23":0.2579227978870866,"24":0.14284333727716006}},{"sx":1,"sy":1,"depth":25,"w":{"0":0.014547240963673953,"1":0.04442706056677747,"2":0.06177653997222767,"3":0.16818261678883617,"4":0.2893704822992913,"5":0.02453831887831674,"6":0.18260499774872127,"7":0.06923641711390614,"8":0.2428895986561192,"9":0.17234722746324543,"10":-0.3830061150260803,"11":-0.2111058574401792,"12":0.015623854639582501,"13":-0.07199486819477864,"14":0.06167632940932769,"15":-0.11427514379385584,"16":-0.1369601150207385,"17":-0.12106207920176272,"18":-0.03533876204246392,"19":-0.08411498927057866,"20":-0.3369339098053831,"21":0.1327079363799163,"22":-0.016512687038060875,"23":0.05244825867780738,"24":-0.2162870569510519}},{"sx":1,"sy":1,"depth":25,"w":{"0":-0.21433803601134446,"1":0.025638927562084163,"2":0.13560882113841743,"3":0.10863293492477001,"4":0.2088850151266076,"5":-0.3542305434847681,"6":-0.164139000504615,"7":-0.3170099840575448,"8":-0.03917140402021447,"9":0.09453623800840245,"10":0.07403148966009827,"11":0.09914360944589613,"12":0.05139436534628468,"13":-0.0003503804852688455,"14":0.18765881529434897,"15":0.24030297391078,"16":-0.14740860973317316,"17":-0.11012615925887757,"18":-0.2997420333678575,"19":-0.027589357504225472,"20":-0.03376441380605929,"21":-0.29883293282094653,"22":-0.18193715539701835,"23":0.032685528517466915,"24":0.25597664470336934}},{"sx":1,"sy":1,"depth":25,"w":{"0":0.3553979054283482,"1":0.03316916119935448,"2":-0.012063353897285392,"3":0.23949537316495462,"4":0.17977297020026983,"5":-0.32219953567883036,"6":-0.0011276291511794576,"7":-0.03118667038803492,"8":-0.028167457142712616,"9":0.13065293028682762,"10":-0.03262970511261614,"11":-0.19493248327830817,"12":0.2980515694192793,"13":0.40637254580827836,"14":0.09672723388090326,"15":0.03992719929077948,"16":0.14505713841199544,"17":0.0794896758742596,"18":-0.7033223032796762,"19":-0.2779080675828963,"20":-0.08009028611010442,"21":0.370752235751098,"22":-0.0011817059359603384,"23":0.30784966423794274,"24":-0.1932943724756457}},{"sx":1,"sy":1,"depth":25,"w":{"0":-0.09152896451998403,"1":-0.272234613589231,"2":-0.13109660205979162,"3":0.18613431191214425,"4":0.287758011279879,"5":-0.4417205969468286,"6":-0.07589039131223294,"7":-0.24494551712064222,"8":0.2525342763847742,"9":-0.23465939734520652,"10":0.09953145047944516,"11":0.17833717717925412,"12":0.042317264696759074,"13":-0.018670627945171558,"14":-0.17743429327596,"15":0.14827697017829747,"16":0.02824884562498072,"17":-0.0035236302518135538,"18":0.21854792312957844,"19":0.30407288447648406,"20":-0.21865318786186924,"21":0.1992414234058991,"22":0.23176537944447534,"23":-0.0028430768994369394,"24":-0.08614737328132985}},{"sx":1,"sy":1,"depth":25,"w":{"0":0.12241646559353647,"1":0.06398573596035938,"2":-0.2260721067641794,"3":-0.050842326168724535,"4":-0.01780801321592743,"5":0.0037154813323989878,"6":-0.08423577945709283,"7":-0.27145736269038745,"8":0.12957631026152272,"9":0.11255342740068447,"10":0.3333510130347906,"11":-0.17268459373505712,"12":0.22345631405316627,"13":0.24567362282562588,"14":0.24272946420795594,"15":-0.015005763420382307,"16":0.10689877067873148,"17":0.3060423123296527,"18":-0.08125486394758233,"19":0.06613474175312396,"20":0.10362541834613612,"21":-0.04414699619781435,"22":0.2703653058433013,"23":0.25087364289295355,"24":0.23294645979224993}},{"sx":1,"sy":1,"depth":25,"w":{"0":-0.05013024321157709,"1":0.3066456892781871,"2":-0.14786145430369574,"3":0.14375774625646545,"4":0.07608652760051879,"5":-0.15642528346464024,"6":-0.3716103208631567,"7":-0.10605003118808631,"8":0.2317611604889617,"9":-0.31094214599339354,"10":-0.2770706765729344,"11":0.2692531409514583,"12":0.05077828531043734,"13":-0.08638717210294346,"14":-0.06014567594387718,"15":0.06144453793687636,"16":-0.059457729329272305,"17":0.017847276170769977,"18":0.1615182086485018,"19":-0.06535697362344675,"20":-0.07037506579531526,"21":0.2558415797211947,"22":-0.2174903927041148,"23":0.029622637946844773,"24":-0.32978621028515753}},{"sx":1,"sy":1,"depth":25,"w":{"0":0.07893135470267507,"1":-0.11709481310864772,"2":0.22167099586236932,"3":-0.12818394851215562,"4":0.32404077309215373,"5":-0.1159036323030201,"6":-0.21667867526720527,"7":0.16823927447522674,"8":0.2383567674471236,"9":-0.015276974604086987,"10":0.05118536437691,"11":0.052912943580893865,"12":-0.1077868739014346,"13":0.313072479570697,"14":-0.05257160892920202,"15":-0.10532766224573727,"16":0.26747555784646326,"17":-0.14880005343116917,"18":0.09034745209891516,"19":0.4256164856997966,"20":0.26241564000953416,"21":0.024177318019817477,"22":-0.24051635827551557,"23":0.2921064402779823,"24":0.10082262418530161}},{"sx":1,"sy":1,"depth":25,"w":{"0":-0.01266936908273448,"1":-0.5712990499622027,"2":-0.2786058041981801,"3":-0.2607048359800077,"4":-0.24099774776114316,"5":-0.07159123191839249,"6":0.2734103803899399,"7":-0.21489869068112927,"8":0.03233288551139572,"9":-0.05685958295914905,"10":0.26426989152375674,"11":0.10255881938516273,"12":0.0649267786665994,"13":0.21268460051906118,"14":0.07170621271183003,"15":-0.30296772777135983,"16":0.11927608781362593,"17":0.017314914837154284,"18":0.1614217421082843,"19":0.05484554200177187,"20":0.48755414037897055,"21":0.006949583703438116,"22":0.07287855820380922,"23":-0.7903575859625754,"24":-0.1191542642095227}},{"sx":1,"sy":1,"depth":25,"w":{"0":0.11448562554915777,"1":0.29248503740810716,"2":0.11078742022926659,"3":0.0924664187640128,"4":-0.23999785473255095,"5":-0.10943624497314583,"6":-0.13143437776786174,"7":-0.21697489144292953,"8":0.09611565315478518,"9":-0.0790827127385462,"10":-0.19571198870640524,"11":0.04732531690937599,"12":0.2698748821008253,"13":0.22707992218737472,"14":-0.07882145716881972,"15":-0.11522046457047921,"16":0.09863275681878922,"17":0.25581222260794334,"18":0.06835924784830974,"19":-0.17136439191875297,"20":0.12173941384532722,"21":-0.15592195007220325,"22":-0.10750638575647688,"23":0.14947679013682555,"24":-0.12186717684441592}},{"sx":1,"sy":1,"depth":25,"w":{"0":0.34209644609636203,"1":0.09775090270624086,"2":0.09935362185244492,"3":-0.181367986559772,"4":-0.20758467685025864,"5":-0.24430064061743595,"6":0.5055588069133311,"7":0.4302176237018825,"8":-0.21801945665476907,"9":-0.4115166713552785,"10":0.026384137067612133,"11":-0.059048864102385454,"12":0.03466903037582739,"13":-0.021607828231997674,"14":-0.0486021501110381,"15":0.054783611154794395,"16":-0.18149869357721482,"17":-0.18029240379090397,"18":0.19226448397276322,"19":0.06533895068716838,"20":-0.006740424296708874,"21":-0.09919239480561602,"22":0.17398238092463683,"23":-0.18229255341150225,"24":0.026551240469135682}},{"sx":1,"sy":1,"depth":25,"w":{"0":-0.15408959862471489,"1":-0.05103198005810548,"2":0.01629155647833297,"3":-0.0684876321244946,"4":-0.3171423387504073,"5":0.14174427436985795,"6":-0.2996086884565322,"7":0.25893281410786645,"8":0.3488557445045242,"9":0.3390695537350747,"10":-0.05214033339574388,"11":-0.12622541815973312,"12":-0.0383529043091255,"13":0.18482422033351537,"14":-0.1859718930500722,"15":-0.11293524651927905,"16":-0.04105271315807935,"17":-0.04529974900880126,"18":0.528164461571514,"19":0.2905520877812831,"20":0.14579525097320983,"21":-0.1412066427057778,"22":0.4022455901832836,"23":0.07400615164636051,"24":0.2548841919695784}},{"sx":1,"sy":1,"depth":25,"w":{"0":-0.24273339392574494,"1":0.1443170295643805,"2":0.11873083139100098,"3":-0.2589512434400669,"4":-0.11223016402240517,"5":0.41051731303655564,"6":-0.08272588054755853,"7":0.19665259417097927,"8":0.15348724249422704,"9":0.11247875605156354,"10":-0.09037005885522008,"11":-0.21096125010492137,"12":-0.21519018956363897,"13":-0.42281177077076415,"14":-0.2607430824644513,"15":0.22534864390509665,"16":-0.2804412417538916,"17":0.002322468905116186,"18":0.061342619805262025,"19":0.03988356596122051,"20":-0.2941949475556932,"21":-0.03686139571944641,"22":0.27035675488230965,"23":-0.30812666024792196,"24":-0.06548046584092393}},{"sx":1,"sy":1,"depth":25,"w":{"0":-0.24940686367781092,"1":-0.14161583074558262,"2":-0.0952322752478263,"3":0.07638494058262946,"4":0.2900288245564743,"5":-0.017326909765302687,"6":-0.2129338770274966,"7":-0.09091264346699136,"8":-0.2446193336412675,"9":0.26246769702968553,"10":0.10502579365871041,"11":-0.023325002757614788,"12":0.22771032095389215,"13":-0.3461779675827565,"14":0.022336494354998754,"15":0.05318144361471598,"16":0.5047539692963511,"17":0.03977182693719926,"18":-0.10666013991940315,"19":0.01580673497645916,"20":-0.009637567033968621,"21":-0.16355441684000802,"22":0.17465123331077861,"23":-0.3636001625819708,"24":0.5466633559878527}},{"sx":1,"sy":1,"depth":25,"w":{"0":-0.05085907348496858,"1":-0.5219737171043263,"2":-0.1915124008937796,"3":0.1762789867893157,"4":-0.24637077109559144,"5":0.2061426528818628,"6":-0.08674865475175629,"7":0.015675324710233383,"8":0.164402596018229,"9":0.13424142047846568,"10":0.0025517326245732825,"11":-0.1345863755783505,"12":-0.13620325627040467,"13":-0.3140359681485245,"14":-0.0091560838360356,"15":-0.23679359172817707,"16":0.14980159012722644,"17":-0.1453486061299251,"18":0.05485542493138264,"19":0.22882381380549013,"20":0.0642833528286745,"21":-0.027808678906473826,"22":0.06134095999407711,"23":-0.12444887642432619,"24":-0.20553041524342247}},{"sx":1,"sy":1,"depth":25,"w":{"0":-0.21994957963942532,"1":0.21156560997779347,"2":-0.22965033176529345,"3":-0.025984183923872563,"4":-0.3347396309858005,"5":0.08048987416895366,"6":-0.006471983159062306,"7":-0.10231670728396715,"8":0.3751849565244609,"9":0.20682296518528254,"10":-0.04021307830513739,"11":-0.22279988374645632,"12":-0.4976226240380337,"13":0.024002073931840732,"14":0.18943469630566745,"15":-0.06027625861243143,"16":-0.05554967366172216,"17":-0.21353173943665463,"18":0.0767124446097495,"19":-0.1127209502394537,"20":-0.06667637043996856,"21":-0.08457257064631366,"22":0.1319077737274998,"23":-0.13616499635159518,"24":0.09382793808867941}},{"sx":1,"sy":1,"depth":25,"w":{"0":0.222930897950005,"1":0.22801886366593943,"2":-0.36617042797329963,"3":0.1439352713795083,"4":0.09690204110301463,"5":0.27786470124095775,"6":0.0955164348032402,"7":0.059634789099805144,"8":0.05150192051549505,"9":0.05666106748477134,"10":0.350014670587365,"11":-0.034642629910189286,"12":0.18844168948615453,"13":-0.10022442348013225,"14":-0.033216126569538804,"15":-0.045533788591355435,"16":-0.055657813466136415,"17":0.035401639247785346,"18":-0.1991701108069613,"19":-0.3334195254029792,"20":0.1759755054305156,"21":0.19940291974432453,"22":-0.5189324290168815,"23":-0.09198443505211248,"24":0.10671340280008065}},{"sx":1,"sy":1,"depth":25,"w":{"0":0.24042142763412397,"1":-0.05733942992248972,"2":0.19535838811574086,"3":-0.35082379827076027,"4":-0.3538139562186671,"5":0.0588801318315265,"6":-0.12171309178143469,"7":-0.06960934561140128,"8":0.05022933508294782,"9":0.019121946110050046,"10":0.014054848765691602,"11":0.1849958791773659,"12":0.08400641536473225,"13":0.35448910544824463,"14":0.2179677477078026,"15":-0.24854634917746649,"16":-0.0005245511291702247,"17":-0.06337650149554826,"18":0.034706521486291074,"19":0.04195731241338569,"20":0.3385225804394951,"21":-0.01749037298750664,"22":0.00663521443855951,"23":-0.2985304598294699,"24":-0.12869001487177886}},{"sx":1,"sy":1,"depth":25,"w":{"0":-0.05022452460353853,"1":-0.0808845409210513,"2":0.06283286821906091,"3":0.2736740067515304,"4":0.45141672815520656,"5":0.05321457195168476,"6":-0.16701216355095141,"7":0.2379336918656328,"8":0.10920661205213605,"9":0.21388930969009817,"10":-0.24558173135728822,"11":0.08322523886611455,"12":0.3000993972445201,"13":0.28354318672841644,"14":0.1051586765974418,"15":0.3149553677667285,"16":0.1575665199133701,"17":0.1077083015943542,"18":0.35676109784889365,"19":-0.09813093297754956,"20":0.08043388048761212,"21":-0.008640683203803571,"22":0.056084504269969256,"23":0.22540738177476252,"24":-0.33776100697462774}},{"sx":1,"sy":1,"depth":25,"w":{"0":0.4297584545801266,"1":0.03934903050478638,"2":0.05937644602132468,"3":0.14356215087014126,"4":-0.16161031242723428,"5":0.25010110640096334,"6":-0.26741966820118696,"7":0.1443799181513015,"8":-0.0836798061922038,"9":0.6408860679800944,"10":-0.2930481021654672,"11":0.06922925485932674,"12":-0.08072299169049094,"13":0.0888609555532626,"14":0.09173579717484154,"15":0.3345495324472489,"16":-0.24102272640933306,"17":-0.4795826354984005,"18":0.050485047161146206,"19":-0.07556399806625076,"20":-0.17721812178560864,"21":-0.16104184485703776,"22":-0.04005217236900206,"23":0.28338548721590084,"24":0.21656456656360493}},{"sx":1,"sy":1,"depth":25,"w":{"0":-0.1352618421884423,"1":0.011167792066293408,"2":0.08458906146797879,"3":0.17465098584225536,"4":-0.48666667239248745,"5":0.17107357690202588,"6":-0.3334874418408101,"7":0.09910404687771013,"8":0.15183738204368977,"9":-0.07936063716937643,"10":-0.05620239738097927,"11":0.06519867004004139,"12":0.29731098418115093,"13":-0.2882139259927647,"14":0.20475521454573653,"15":-0.2577529965375616,"16":-0.10926717929157044,"17":0.07618990878937137,"18":-0.30312984515282854,"19":0.10561748067893711,"20":-0.10507538770849925,"21":0.3391676271340663,"22":0.1891173781853919,"23":-0.3395279655741399,"24":0.2684094377681191}},{"sx":1,"sy":1,"depth":25,"w":{"0":0.3024462391228672,"1":0.011859695708510594,"2":-0.3552027551462805,"3":-0.08353723992987767,"4":0.1958206734627694,"5":-0.06564264361848439,"6":-0.015065340698096385,"7":0.0708406433364199,"8":-0.4515236770359722,"9":0.32816804028930213,"10":-0.11184747372939628,"11":0.0008697447973245439,"12":0.24751909296756847,"13":-0.17490759645229587,"14":-0.10978432596488498,"15":0.06558431016694746,"16":0.4019150223107074,"17":-0.3192949194655589,"18":-0.18302049539118104,"19":0.18330688477651097,"20":-0.2524967231647024,"21":0.10745074825621193,"22":-0.4475582073292181,"23":-0.311861968601922,"24":-0.07190896805856804}},{"sx":1,"sy":1,"depth":25,"w":{"0":0.31784759502631593,"1":0.15012790493414616,"2":-0.11925410145373556,"3":0.07920315528793023,"4":-0.039205842511804784,"5":0.3057425283321287,"6":-0.08787950960870279,"7":0.2536638133363015,"8":0.3925183452045084,"9":-0.21931809102577,"10":0.04671826345130246,"11":0.27909129745689437,"12":-0.28555448342707934,"13":0.34279647526604395,"14":0.05114839290381917,"15":0.4299090427505438,"16":0.1874919798780361,"17":-0.19343728115686118,"18":-0.2148228552293253,"19":0.05385365892460332,"20":-0.23210525077652333,"21":0.011980570226232464,"22":-0.09946966137110588,"23":0.232653615638545,"24":0.08149896637519378}},{"sx":1,"sy":1,"depth":25,"w":{"0":0.5378410526762809,"1":-0.13052756166092583,"2":-0.14539833903952715,"3":-0.1340785403730022,"4":-0.17691825402438052,"5":0.16519244914877815,"6":-0.13479088205813772,"7":-0.2948731165630539,"8":0.2058298721263955,"9":0.13082703453868447,"10":-0.45859629628799137,"11":0.05117850833307319,"12":0.4624792041222562,"13":0.3659518634611937,"14":0.4592454927598461,"15":-0.21333484788151946,"16":-0.03651231978071918,"17":-0.14716978096925226,"18":-0.1721073489879157,"19":-0.03423495782946318,"20":0.1378638723277448,"21":-0.0440058836596858,"22":-0.5174555084539056,"23":0.015199616220787087,"24":-0.0896723870480527}},{"sx":1,"sy":1,"depth":25,"w":{"0":0.0011852507939491012,"1":-0.00031135108679463406,"2":0.2773252949014632,"3":0.06970604132077382,"4":0.28641123763852,"5":0.21941922336876304,"6":-0.20513347104230104,"7":-0.06449801794578754,"8":-0.2036202123975142,"9":0.05676945478943893,"10":0.009155185980837473,"11":0.22075369955960664,"12":0.16534270621040217,"13":-0.15018874667226095,"14":0.31165478291955395,"15":-0.002775440736293977,"16":-0.29908884642243766,"17":0.41591121140170223,"18":-0.41697578203941216,"19":-0.21582413766581157,"20":-0.23748880852778312,"21":0.10949004595301502,"22":-0.047606225208860646,"23":-0.15520499835907994,"24":-0.037573455591611946}},{"sx":1,"sy":1,"depth":25,"w":{"0":0.020517327469043153,"1":0.01410518771050446,"2":0.003181273361418519,"3":-0.008970157497707233,"4":0.21597796379514053,"5":0.15020700313632224,"6":0.27613533312450167,"7":-0.15379049928282257,"8":0.11341736573829124,"9":-0.12692511114108085,"10":-0.06604386939133965,"11":0.15307200034082866,"12":0.1705963613079452,"13":-0.2479621528885265,"14":0.05473465499900376,"15":0.09467846204591418,"16":-0.17477889358824064,"17":-0.08739361939016647,"18":-0.2486154561306186,"19":-0.05014192630762474,"20":-0.3372629567987879,"21":0.20891726959326978,"22":-0.1653696164918328,"23":0.15664222935814617,"24":-0.13810813729143065}},{"sx":1,"sy":1,"depth":25,"w":{"0":0.10611856240629836,"1":0.22263848716764065,"2":-0.21799714388336658,"3":-0.2395553406995227,"4":-0.004242899683303576,"5":-0.007101554868793842,"6":0.03807433953875503,"7":0.052991666684979365,"8":0.0652337115410716,"9":0.22407993449808808,"10":-0.13728316752150949,"11":-0.2321422278213937,"12":0.06801255162103305,"13":-0.40014313521336053,"14":0.0702772137568999,"15":0.055264362939370607,"16":-0.061301480585761195,"17":-0.042153211272026196,"18":0.024720132912291592,"19":0.12209831001583132,"20":0.1428950966655468,"21":0.08639994488181076,"22":0.3128147216019823,"23":-0.04871667486991091,"24":0.20233734922980054}},{"sx":1,"sy":1,"depth":25,"w":{"0":-0.04720117019909168,"1":-0.11909531645605684,"2":0.08772063287064548,"3":0.009348547596615521,"4":-0.5677362257033257,"5":-0.2293150776667739,"6":0.1670073205542179,"7":-0.0426753127939132,"8":0.19360431535456896,"9":0.05710255338443581,"10":-0.21353988200949373,"11":-0.13603309931550014,"12":-0.21146773255796003,"13":0.17396278267711074,"14":-0.06614102731006775,"15":-0.11413183502919874,"16":-0.07072258274374844,"17":0.0068312798606821445,"18":-0.1266177104974587,"19":-0.13235423821297218,"20":0.29995240401405976,"21":0.10083116805340124,"22":-0.16812367214494364,"23":-0.24038534225604555,"24":-0.26124238255704296}},{"sx":1,"sy":1,"depth":25,"w":{"0":0.15086201469531918,"1":0.18691230083672444,"2":0.12798678059587962,"3":-0.07173973569277038,"4":-0.34727120158458824,"5":-0.2484624425863044,"6":-0.17932940312138623,"7":-0.12653219994592885,"8":0.09557621401730199,"9":-0.016685412117779522,"10":-0.011899371255501312,"11":0.16013150692693645,"12":-0.11498465386075346,"13":0.17419864010857822,"14":0.13438944476079603,"15":-0.17827879522624074,"16":0.42181914553421257,"17":0.09365602505752516,"18":-0.06029757024872077,"19":0.09063753619578394,"20":0.21166340893434313,"21":0.2418257198330272,"22":-0.1751118669482319,"23":-0.07483015097108023,"24":-0.2419529472850189}},{"sx":1,"sy":1,"depth":25,"w":{"0":-0.0709636078298732,"1":0.18711408582428501,"2":0.15417775739524428,"3":-0.1130581803769989,"4":0.05933755551144118,"5":0.2994376732866141,"6":0.00552075391891663,"7":-0.38001117041787835,"8":0.23047241679287986,"9":-0.1636587660927134,"10":-0.13598579186328094,"11":0.026073559526242615,"12":0.26541045271632563,"13":-0.033564113768332515,"14":0.01599416663920563,"15":0.16159023832445868,"16":0.3251768471031703,"17":0.040621901870711796,"18":-0.13149411778205095,"19":0.402294538086295,"20":-0.00040126972827056896,"21":0.11625619826488297,"22":0.32962781543512604,"23":0.1579991110756557,"24":-0.069984780751844}},{"sx":1,"sy":1,"depth":25,"w":{"0":0.08612221390579133,"1":0.25259586550959073,"2":-0.09766782753008638,"3":0.13584698729849864,"4":-0.27731675823813784,"5":-0.24290341885620806,"6":0.2684107071703092,"7":0.04193172252043599,"8":-0.3350002161174916,"9":0.2187743525633749,"10":0.05734490325923445,"11":-0.03267330979710907,"12":0.34926896232208715,"13":0.27449355503725953,"14":0.0006873058132769987,"15":-0.2081686082716329,"16":0.2881296701028869,"17":0.15067280903436994,"18":0.18137238928864838,"19":-0.04166824853004006,"20":-0.20505522718781535,"21":-0.11762686789726234,"22":-0.17563622490158148,"23":-0.1394109124207175,"24":0.26916660198109776}},{"sx":1,"sy":1,"depth":25,"w":{"0":-0.2552549800312017,"1":-0.05479062013227345,"2":0.4023708214280932,"3":-0.21734482249684145,"4":-0.08816556713848864,"5":-0.22955786815259566,"6":-0.21437996407791468,"7":0.20330938591382908,"8":-0.07203049132826943,"9":0.02094779019624802,"10":-0.09894484193704356,"11":0.011714163487222894,"12":0.17279412243095674,"13":0.2999158961471269,"14":0.1284122292999054,"15":0.03058569665783019,"16":0.5339150346784368,"17":-0.024867348677202174,"18":0.437400157321236,"19":-0.14600497280490263,"20":0.16059474425995876,"21":0.031366646034051725,"22":0.3728079478276476,"23":0.1907739544381326,"24":-0.021182087352615814}},{"sx":1,"sy":1,"depth":25,"w":{"0":0.041832235751587184,"1":0.31161257550816374,"2":-0.08715997889133445,"3":0.151751629447708,"4":0.33448377085054887,"5":0.2207847637937013,"6":0.10592186294652857,"7":-0.1750675235341372,"8":0.11038599111382368,"9":-0.18935380389688852,"10":-0.3234551703921527,"11":0.14816177322339733,"12":0.18759945771153932,"13":-0.18476907352481683,"14":-0.16190212389299616,"15":-0.1219243883645327,"16":0.2424336355861661,"17":0.3036184574196493,"18":0.39582905619267766,"19":0.27436990881395584,"20":-0.07732830761663395,"21":-0.14061180107906063,"22":-0.17486027435981796,"23":0.049977142204092294,"24":0.1493466495413667}},{"sx":1,"sy":1,"depth":25,"w":{"0":-0.15672035455006883,"1":-0.4117516379516758,"2":-0.12594847849783172,"3":-0.05433754192124394,"4":-0.08068953200897307,"5":-0.44600044887396517,"6":0.10057279548812482,"7":0.2686763360219158,"8":0.09806010971921958,"9":-0.06187128289468168,"10":-0.1998249803427245,"11":0.13708269254754335,"12":0.4654217104848947,"13":0.008699721329802547,"14":0.27808013743759236,"15":0.36897198185162017,"16":-0.25913391348590376,"17":0.1772260745607493,"18":0.015041696914758809,"19":0.01586469360295184,"20":0.01905034950251943,"21":-0.12451410194391713,"22":0.1691094007176923,"23":0.17150047870332458,"24":0.13677978806547988}},{"sx":1,"sy":1,"depth":25,"w":{"0":-0.18028701681002277,"1":-0.23449576572880004,"2":-0.11671556429665325,"3":0.19504337112313322,"4":-0.22906938760919252,"5":-0.08061631087690112,"6":0.0008062733358453805,"7":0.015863321011723996,"8":0.037712443158034174,"9":-0.2244254893447368,"10":0.073695992724207,"11":-0.11887000321032493,"12":0.24947687008968877,"13":0.4051674826885079,"14":-0.020882687231118604,"15":0.042173752759784376,"16":0.21278619389319672,"17":-0.11145367484643774,"18":-0.41824773365583434,"19":0.26057041524884555,"20":0.21825993246488073,"21":-0.3925198780654591,"22":-0.2845782097450999,"23":0.19417629726255167,"24":0.07493627369249045}},{"sx":1,"sy":1,"depth":25,"w":{"0":0.13667212349716906,"1":0.042754384835992754,"2":-0.27776705037619703,"3":0.1366489215380076,"4":0.105939107225623,"5":0.14976537185940134,"6":0.1473775352166497,"7":-0.09787335111560122,"8":-0.1324338152264995,"9":0.11491852903665578,"10":-0.14826284443895515,"11":-0.089582059592122,"12":-0.21857300080687123,"13":0.16919107065046846,"14":0.0986417398532161,"15":0.1845105450681166,"16":-0.004244532957870814,"17":-0.034308024856175914,"18":0.43407357576662986,"19":0.3160731431975436,"20":0.30186190347988345,"21":-0.16922780927677944,"22":0.6328461175093016,"23":0.2997487082934793,"24":-0.008850225225087454}},{"sx":1,"sy":1,"depth":25,"w":{"0":0.07810589537507961,"1":0.5045483985495745,"2":0.10549108890329766,"3":-0.037247340128971525,"4":-0.1424891276090952,"5":-0.20845708486472667,"6":-0.015568126394542471,"7":0.24116188774319786,"8":-0.28376049313722485,"9":-0.4279592479638324,"10":0.197568313293675,"11":-0.3848517806383492,"12":0.02678123377555023,"13":0.37952682447205877,"14":0.31829393200686984,"15":-0.4643236630282131,"16":0.1185305625607324,"17":-0.054813879102631864,"18":-0.11097051326982084,"19":0.30590444862728816,"20":0.5062302356362178,"21":-0.1371876606388672,"22":-0.195304251985566,"23":-0.2891008548582863,"24":-0.539354428964814}},{"sx":1,"sy":1,"depth":25,"w":{"0":0.502016849096792,"1":0.012410188946003814,"2":-0.06218464104705964,"3":0.020025351662223037,"4":-0.056259607167030636,"5":-0.043129461849585334,"6":-0.08788063187496198,"7":0.09239938035516689,"8":0.2743367689191032,"9":0.15718571171942705,"10":-0.4070637548780392,"11":-0.1792271177428083,"12":0.08694280608046412,"13":-0.3239844342360398,"14":-0.2799925006703276,"15":0.10810596661051791,"16":0.1600561439548479,"17":0.2752343128662363,"18":0.08600334673712137,"19":0.3129897520045344,"20":0.059657754660787946,"21":-0.15491206321718065,"22":-0.2534786664324552,"23":-0.007287924624852414,"24":0.08291310459011952}},{"sx":1,"sy":1,"depth":25,"w":{"0":0.1985705491212071,"1":-0.2567043898646467,"2":-0.2315334968981356,"3":0.12041386524626907,"4":-0.019085513178594214,"5":0.030725609000582424,"6":0.016644940599720246,"7":0.1779132687731337,"8":-0.2095772995749627,"9":0.2302403399701261,"10":0.19686157050487652,"11":0.2516776772405224,"12":-0.6683037275970741,"13":-0.08489588939918688,"14":-0.023741881471374016,"15":0.483159396479271,"16":0.19345460933858147,"17":0.0633527618813432,"18":0.21465694698933152,"19":-0.331758005203148,"20":0.2645451837015887,"21":-0.2319990118522104,"22":0.010065065919066555,"23":0.4870398714704572,"24":-0.04742549653948626}},{"sx":1,"sy":1,"depth":25,"w":{"0":-0.13775533040101431,"1":-0.3196377397292591,"2":0.25423854757103637,"3":0.09927286483644691,"4":0.3236181262475336,"5":-0.042157335126899016,"6":0.04632490411353069,"7":-0.07488507244395182,"8":0.15618386443803195,"9":-0.09576964894089474,"10":0.11246980098822312,"11":-0.04274811539248102,"12":0.011701194109048603,"13":0.10237918875745004,"14":0.39731850298792776,"15":-0.0844793690580819,"16":-0.1512696041492375,"17":0.09964164065457223,"18":-0.05470661632587208,"19":-0.031060217271820022,"20":0.15662194749808392,"21":0.02236964451878814,"22":-0.4367685441231454,"23":0.02758524344802599,"24":-0.15782539468237602}},{"sx":1,"sy":1,"depth":25,"w":{"0":0.12225588061936908,"1":-0.17574026697226589,"2":0.05648411487740936,"3":0.08029620321757654,"4":0.265444759200538,"5":-0.03315058552651328,"6":-0.17597956678569301,"7":0.27192360907694035,"8":0.20641248488245356,"9":-0.31878003082134,"10":-0.04840403361443635,"11":0.04188722320885935,"12":-0.1541750293192609,"13":-0.07771246039830539,"14":0.18273813215357154,"15":-0.29345505981479436,"16":-0.16857664102503328,"17":0.08222314813047173,"18":0.10188461225985139,"19":0.11402875729557128,"20":0.1519206694525381,"21":-0.12627435871080273,"22":-0.15211084673478015,"23":-0.24453501495228955,"24":0.0929046321467732}},{"sx":1,"sy":1,"depth":25,"w":{"0":-0.09649515388691822,"1":-0.2589395436158012,"2":-0.10272786681703985,"3":0.1290143927952448,"4":-0.5715194781011628,"5":-0.023487608844272177,"6":0.28401018089134755,"7":-0.4555199812703169,"8":-0.1359927657258214,"9":-0.06543418205409761,"10":0.10752746345639497,"11":0.00781885656822948,"12":-0.021353266915156807,"13":0.1489731726947746,"14":-0.08873741608707922,"15":0.25273191485383123,"16":-0.31363945680528016,"17":0.10656191996336843,"18":-0.005407410373696102,"19":-0.14704281140861486,"20":0.16102115209756726,"21":-0.056121789332968214,"22":-0.1113515422048944,"23":0.1628816249526856,"24":-0.08217420732598994}},{"sx":1,"sy":1,"depth":25,"w":{"0":-0.21676384281641567,"1":0.18996551152375388,"2":-0.17909102387314332,"3":-0.02872526123268971,"4":-0.10313504660433089,"5":-0.02674733133592,"6":0.08292473744269771,"7":0.23459661294228232,"8":-0.17909311373565276,"9":-0.011429476089885905,"10":0.029843509300659238,"11":-0.31588571817438416,"12":-0.3326581040001574,"13":-0.16749988724717257,"14":0.047435054991476544,"15":0.17382349022262808,"16":-0.06109900878586475,"17":-0.22756902150304223,"18":-0.2914413926763041,"19":0.03192605509925134,"20":-0.08990816966320507,"21":-0.20488001587448665,"22":-0.13190795315754078,"23":0.035789257326330044,"24":-0.10847639497653591}},{"sx":1,"sy":1,"depth":25,"w":{"0":-0.062260607667800644,"1":0.4313308699215726,"2":-0.0008940649184049581,"3":0.027197541538999025,"4":-0.2847353905835341,"5":0.1589757144587713,"6":0.04387991688018207,"7":0.13814973445341383,"8":0.14512229037094163,"9":0.2180908194717837,"10":0.19410501111582915,"11":-0.017508562543174025,"12":-0.027928456579564564,"13":-0.06298102589272958,"14":-0.2222710662281305,"15":0.1761198288807557,"16":-0.09222821947623924,"17":0.09934182927411629,"18":0.24019995718991216,"19":0.044393734460766825,"20":0.14319826931246882,"21":0.10270411730954081,"22":0.13673081213731125,"23":-0.1072471812956114,"24":0.05691112073285152}},{"sx":1,"sy":1,"depth":25,"w":{"0":0.14807666131073907,"1":-0.16927804319099599,"2":-0.2860087520108565,"3":0.3921292483507016,"4":0.22500229374240047,"5":-0.2992024607826793,"6":0.0739607877721583,"7":-0.018311209592125465,"8":0.10270489739167095,"9":-0.20081623116463077,"10":-0.005133856381036196,"11":-0.1802282491569441,"12":0.34002963021910443,"13":0.4324468442601213,"14":0.11637720570472569,"15":0.07862333339084296,"16":0.028106991191057727,"17":-0.12113443019036291,"18":0.24125805897836047,"19":0.09638350489141069,"20":0.3110740415939734,"21":-0.10744560525938295,"22":0.06012368090815933,"23":0.02092840348422248,"24":0.2746024769583071}},{"sx":1,"sy":1,"depth":25,"w":{"0":-0.27689724301280483,"1":0.021802320715248187,"2":-0.20990248807832892,"3":-0.2856318362274808,"4":-0.01832684267401595,"5":0.06797212705388489,"6":-0.004250810382522043,"7":-0.1996821454662046,"8":-0.2127109325804604,"9":0.014694943250686598,"10":0.352560855047315,"11":-0.0696387931549279,"12":0.09562278182417079,"13":-0.0763049484775842,"14":-0.281589273105024,"15":-0.49812553790795,"16":-0.13233036867850817,"17":-0.10172309778723673,"18":-0.000463368093828389,"19":-0.21052505384098538,"20":0.14237674866785055,"21":-0.11209107380773949,"22":-0.17344250429296373,"23":0.07620719122404392,"24":-0.13574399246015392}},{"sx":1,"sy":1,"depth":25,"w":{"0":0.1935510757648169,"1":-0.48736856093428454,"2":-0.6194351730785873,"3":0.013685023231576403,"4":0.2854571771619143,"5":0.03468635990564719,"6":0.019690900232416386,"7":-0.10114939153611904,"8":-0.008502053161675729,"9":0.18478474166254755,"10":-0.31395608978069905,"11":-0.14002842935664245,"12":-0.26432763673330034,"13":-0.1919718883462607,"14":-0.2336253585602048,"15":-0.16522503367916086,"16":-0.15692339421706966,"17":0.24262086830417431,"18":0.18575465969239122,"19":-0.04207670576754418,"20":0.012602017222676901,"21":-0.05376065999014348,"22":0.0552430724547114,"23":0.19208407698833516,"24":-0.2432175730643859}},{"sx":1,"sy":1,"depth":25,"w":{"0":-0.02026387902607064,"1":0.03819783741763707,"2":-0.2233809533687784,"3":0.050600233524251796,"4":-0.02513602383688763,"5":-0.07639301579422325,"6":0.1373124159908223,"7":-0.10664264770118649,"8":-0.009144339955669633,"9":-0.3988061765409366,"10":-0.18866810885398497,"11":-0.17220959820046233,"12":-0.5045616246934275,"13":-0.12465263607790443,"14":0.20844978540846826,"15":-0.20760256709572922,"16":-0.04176303654563637,"17":0.010032750080904223,"18":-0.16084369411258562,"19":-0.0109681459653071,"20":-0.02356507823782389,"21":-0.04940062048946806,"22":0.1422346219290001,"23":-0.37470212630792044,"24":-0.19014305401765297}},{"sx":1,"sy":1,"depth":25,"w":{"0":-0.128221717955581,"1":0.06751227181804274,"2":0.24010399630086546,"3":0.0054163199707799965,"4":-0.13666042769534145,"5":0.30425905756470406,"6":-0.07433539540038214,"7":0.09924398674344935,"8":-0.058677455368563024,"9":-0.12405220154402757,"10":-0.11765621243414592,"11":-0.14321187334814098,"12":-0.40392224274743044,"13":0.292460664978247,"14":-0.2962399110092349,"15":-0.2922509142265856,"16":0.4550742837096251,"17":-0.15189508764874454,"18":0.6620017725484056,"19":0.17719911592246168,"20":0.5902594970658915,"21":0.20541745985447793,"22":-0.04552360615271851,"23":0.04973233341043705,"24":0.23635954365499973}},{"sx":1,"sy":1,"depth":25,"w":{"0":0.0317624683513763,"1":0.1730386659617931,"2":0.34007347328296106,"3":0.15435645855911656,"4":-0.20107117251770545,"5":-0.24402159419012226,"6":-0.28233517932498137,"7":-0.16439819776535472,"8":-0.05571063819800187,"9":-0.14086087400216885,"10":0.12528832959198577,"11":0.2168799217991242,"12":0.1467836350339418,"13":-0.11617968737754447,"14":0.00018798132397519155,"15":-0.09193475743781182,"16":0.220025074692835,"17":0.16925678734773064,"18":0.1739969641791652,"19":-0.026065865708851128,"20":0.11691997765451476,"21":-0.2949126738600822,"22":0.14408383772816033,"23":0.20959129633844162,"24":0.12415175113120276}},{"sx":1,"sy":1,"depth":25,"w":{"0":0.06867029927491158,"1":-0.3023024679162232,"2":-0.022415740813098575,"3":0.07455548432253428,"4":0.12202310369686373,"5":0.09403389434224325,"6":0.14591004380012018,"7":-0.04629596449439891,"8":-0.16907889731928205,"9":0.1414135893175386,"10":0.00837928242698737,"11":0.07593234871611769,"12":-0.3357418149788534,"13":0.032185581420720734,"14":0.19878633505659293,"15":0.11770456903626311,"16":-0.043995348045029456,"17":-0.17021329334727872,"18":-0.5306270100591152,"19":-0.12874205380205497,"20":-0.06664773852974597,"21":0.014381056679124786,"22":0.2734540462887111,"23":-0.2292978928180174,"24":0.0659487126416356}},{"sx":1,"sy":1,"depth":25,"w":{"0":0.09063001792498208,"1":0.06490185131906415,"2":-0.01103322614214625,"3":0.11514190409352242,"4":-0.11228846422567346,"5":-0.07180430926054816,"6":0.4462635256675184,"7":0.022945028041579288,"8":0.0761223053259628,"9":0.030681505001589254,"10":0.13683167344481428,"11":0.04921780624641949,"12":-0.12256644275758807,"13":-0.08691767869435121,"14":0.06726626538889237,"15":0.3714580982827273,"16":0.26470905928167154,"17":0.2762440905983053,"18":-0.3360649228276407,"19":0.12202578245923129,"20":0.29598123970126944,"21":-0.17991121969063578,"22":-0.12208123960006834,"23":0.08903717129983096,"24":0.08393552304014346}},{"sx":1,"sy":1,"depth":25,"w":{"0":-0.09242505194976476,"1":-0.26563195913383075,"2":-0.2587024017784212,"3":0.10452803123965726,"4":0.10667500297478562,"5":-0.08547687086226957,"6":0.29855243904669354,"7":0.13011265911207284,"8":-0.055341009447666886,"9":-0.12286084704336551,"10":0.10223419147276198,"11":0.05912627307096832,"12":0.2733259308652124,"13":0.12716974625559613,"14":0.020324086312401887,"15":0.22028638306271503,"16":0.14142670280517544,"17":0.07766352429598523,"18":0.03060322662325319,"19":-0.09009197595291203,"20":-0.10272263884865955,"21":0.09817723035929553,"22":0.3389904063345645,"23":-0.01817237003776108,"24":-0.27070074279654205}},{"sx":1,"sy":1,"depth":25,"w":{"0":0.0019857523205509212,"1":-0.08946480035763404,"2":-0.13993838323264535,"3":-0.21441923139648913,"4":-0.13668495397955438,"5":0.16437625047863355,"6":-0.00799524053703238,"7":0.05312914586955512,"8":-0.28220169214638857,"9":0.17877086978987408,"10":0.04646553298318859,"11":0.12841570468755437,"12":0.08217368768268202,"13":0.1919078573969208,"14":-0.26899371183237236,"15":0.4182868120571373,"16":0.01776862352532578,"17":0.3453315353902956,"18":0.012910894212908459,"19":-0.09020379414152899,"20":0.31041030572160405,"21":-0.2013175498821784,"22":0.0666175626327413,"23":-0.039287581431460356,"24":0.1521964594019053}},{"sx":1,"sy":1,"depth":25,"w":{"0":-0.1749874326027737,"1":0.2228472032878296,"2":-0.2176372592620363,"3":-0.15624958951710535,"4":0.010127942346690209,"5":0.03585611265056375,"6":-0.00956371072374791,"7":0.2198463308845876,"8":-0.1257124930702528,"9":-0.02638856765136747,"10":-0.1776753804215299,"11":0.33188642247745914,"12":-0.13219639176767242,"13":-0.05535224685339435,"14":-0.01944583352482917,"15":0.043399803975541176,"16":0.1130648649269588,"17":0.06625118598709413,"18":-0.034108486501860436,"19":-0.18173616529049316,"20":0.3846688751178165,"21":0.5858363243669031,"22":0.14778914092641818,"23":0.048447208411363026,"24":-0.2611369253843464}},{"sx":1,"sy":1,"depth":25,"w":{"0":-0.17485581336086367,"1":0.08675910626449862,"2":-0.03918117155028607,"3":-0.30274510265395177,"4":-0.24264166311614369,"5":0.10605876895906721,"6":0.07038894487615342,"7":-0.18239548514111037,"8":0.15402019668355665,"9":0.2055709156185916,"10":0.23953644224969894,"11":0.11893120257911828,"12":-0.15462893331692934,"13":-0.09773590766717159,"14":0.1562538542188717,"15":-0.034420538492828764,"16":-0.1733036868707092,"17":-0.0005026166263493111,"18":0.027111095420372835,"19":-0.0019679378913264067,"20":-0.28220773204953276,"21":-0.23870999731426304,"22":0.13951165432445148,"23":0.09294970904918823,"24":0.10973124434497811}},{"sx":1,"sy":1,"depth":25,"w":{"0":0.48277489776563787,"1":0.04670190774143019,"2":0.21614771930299748,"3":0.09714091842009957,"4":-0.05590122031453784,"5":-0.196777564574361,"6":0.3192901128895322,"7":0.031157127323524495,"8":-0.21447116269047262,"9":0.08567703108825078,"10":-0.0002200686077515656,"11":-0.03568582094528429,"12":0.10842604988961738,"13":-0.00899973748388834,"14":-0.06664331581301351,"15":-0.024887559592638688,"16":0.39985363014213804,"17":0.023237145650506726,"18":-0.3738510183069374,"19":-0.27847386149123515,"20":0.21291134105742165,"21":-0.21527355614334553,"22":0.025404225340661116,"23":0.47001781615557986,"24":0.24521578222120205}},{"sx":1,"sy":1,"depth":25,"w":{"0":-0.18436507351070316,"1":-0.10485374907406211,"2":0.10700812131553936,"3":0.0829775419883384,"4":0.1923741950028745,"5":0.03361133136135951,"6":-0.046082504684504526,"7":-0.1332008813891586,"8":0.005392303498927939,"9":0.23371560912859238,"10":0.07909868161234775,"11":-0.15506298174652028,"12":-0.09936140534411743,"13":0.04252612725661368,"14":-0.3401784671209187,"15":0.0025633486499897318,"16":0.1005408627539641,"17":-0.2431829216683326,"18":-0.14869642259123383,"19":0.2591594560565234,"20":0.16294383631048287,"21":-0.053964060679580796,"22":-0.3059316911938288,"23":0.20036185689115413,"24":0.7206669366006969}},{"sx":1,"sy":1,"depth":25,"w":{"0":0.38985013954514125,"1":-0.08238115883156748,"2":-0.14486631696743954,"3":0.37249269157649234,"4":-0.18017982887539655,"5":0.023454432651358312,"6":0.16008078908853254,"7":0.09672367831668671,"8":0.21067986820460896,"9":-0.24794622031308375,"10":-0.20755197334866513,"11":-0.06311180384169417,"12":-0.09540964412383335,"13":-0.18108320385320492,"14":-0.18507506039611768,"15":0.10351992837984253,"16":-0.12671453215903916,"17":-0.17254323406103586,"18":-0.09528810062242347,"19":-0.19431670447349209,"20":-0.200306309938945,"21":-0.14418441075318542,"22":0.32991885613695116,"23":0.24391171540959594,"24":-0.2569488979308234}},{"sx":1,"sy":1,"depth":25,"w":{"0":0.06586635405540545,"1":0.16090026040511904,"2":0.41833293071947736,"3":-0.2827131884201533,"4":-0.14693280113514992,"5":0.2858738551162759,"6":0.049206508186189594,"7":0.14772011218277387,"8":0.2712571366835339,"9":-0.052349139218143735,"10":0.3837162154634137,"11":-0.39547762798821634,"12":-0.196566556869599,"13":0.009892538122952443,"14":-0.10950948643712331,"15":0.040136179067032936,"16":-0.17064122725731953,"17":0.03948747879222536,"18":0.08706738390458058,"19":-0.12204614271144906,"20":0.35134759477532246,"21":-0.3019642411057494,"22":0.048535933915507985,"23":0.20864936250425262,"24":0.035689776328440705}},{"sx":1,"sy":1,"depth":25,"w":{"0":0.11710965697459788,"1":0.03003224359065144,"2":-0.24065028197610336,"3":0.011385905789341249,"4":-0.23194616716954924,"5":0.11346878229314634,"6":-0.12777204651944965,"7":0.2778933402501791,"8":-0.10138662268538311,"9":-0.03776727495033067,"10":0.06472907349142693,"11":0.3617045897255042,"12":-0.01281125917427398,"13":0.4463664283944534,"14":0.15248431394078557,"15":0.054437125090684206,"16":-0.08300417297162904,"17":-0.24166438044478744,"18":-0.2201244822434917,"19":-0.11392754523522751,"20":-0.10862240805454212,"21":-0.08916202330789588,"22":0.11669391005220348,"23":-0.025061041518800557,"24":-0.15334400157426786}},{"sx":1,"sy":1,"depth":25,"w":{"0":-0.0662973519790972,"1":-0.35693237558968344,"2":-0.0431391780495827,"3":0.5177536114797154,"4":-0.19869310966601209,"5":-0.07032672812729328,"6":0.2938763040390112,"7":-0.1254036027620151,"8":0.14885948169569893,"9":0.10703138092273806,"10":-0.2842299480476602,"11":-0.25165175885043584,"12":-0.010425739342984956,"13":-0.14119243613159038,"14":0.28955734550930384,"15":0.0039874951551276926,"16":-0.12289194814806408,"17":0.048452454559606305,"18":0.1788521392469845,"19":-0.3433076770741036,"20":-0.06081568454306243,"21":-0.017112839268611752,"22":-0.08226861549431043,"23":0.30282117919671964,"24":0.06702333421955657}},{"sx":1,"sy":1,"depth":25,"w":{"0":0.005584012733730545,"1":0.11795282168067497,"2":-0.27572661314451485,"3":0.1475573051924076,"4":0.04163073826653407,"5":0.35378036210183494,"6":-0.1793214219289098,"7":0.43941098977492926,"8":0.1262150303206375,"9":0.10664918448637167,"10":-0.19208064720685017,"11":0.13498192364224237,"12":-0.028224773060596182,"13":0.7357135521982157,"14":0.08733678888883173,"15":0.3242214752107194,"16":0.10046130739713828,"17":0.14616191377779242,"18":-0.13711089635758067,"19":0.23802980791153436,"20":0.34191856505976,"21":0.1649882742389254,"22":0.13354332279270478,"23":0.2597033229651697,"24":0.05339179375623396}},{"sx":1,"sy":1,"depth":25,"w":{"0":-0.05412523657810934,"1":0.1775730621883278,"2":0.0920069078217686,"3":0.11023885823823779,"4":-0.22119922035409792,"5":0.47814283210601716,"6":0.29772423163419215,"7":-0.2612022308901874,"8":0.051622005089750754,"9":0.16758265337937892,"10":0.1473826357277977,"11":-0.017944665357672616,"12":-0.4261803361473204,"13":0.18458400142260054,"14":-0.21115379887109081,"15":0.5525361188985695,"16":-0.15358578115460036,"17":-0.3463818997287416,"18":-0.14099930041690817,"19":0.0009568868621747154,"20":-0.35088044446671485,"21":0.06501137658450404,"22":0.23482578675458274,"23":0.4976416606389107,"24":0.1098323187632813}},{"sx":1,"sy":1,"depth":25,"w":{"0":-0.034663840179080044,"1":0.009360083439958911,"2":0.06778331271684311,"3":-0.013610360434216678,"4":0.01760589350309062,"5":0.08166299463665061,"6":-0.12684051196834528,"7":0.1336235090821002,"8":0.1537287789465354,"9":0.10153542046804889,"10":0.09050958185431787,"11":0.34791152612996223,"12":0.3690470331450493,"13":0.2696085167933664,"14":0.060943005640929165,"15":0.010210162031473805,"16":0.26063189780655543,"17":-0.1503390028323219,"18":0.2787985456705927,"19":-0.38114837806431845,"20":-0.039851314914192526,"21":0.05955654475716331,"22":0.02283137666235442,"23":0.031013048002014192,"24":-0.09044762514759502}},{"sx":1,"sy":1,"depth":25,"w":{"0":-0.28186578377923316,"1":0.13673865811109584,"2":-0.23536640246045326,"3":-0.16620248211459332,"4":0.09860899597622595,"5":0.022606181260331485,"6":0.24443007810027767,"7":0.44029261375999124,"8":-0.17431945780586833,"9":0.32665876821536577,"10":0.1224390560567418,"11":0.04572091428798296,"12":0.2158983221701463,"13":0.13465443035707333,"14":-0.07589449070751277,"15":0.06331889912154512,"16":-0.2578867859861432,"17":0.0034694966606293367,"18":0.1781420845804468,"19":-0.12282264216647719,"20":-0.1744450270963533,"21":-0.1814822903273259,"22":0.138968216090295,"23":-0.12753872975390587,"24":0.35141585890460497}},{"sx":1,"sy":1,"depth":25,"w":{"0":-0.22006800233996826,"1":-0.13342408279682624,"2":-0.1623258279111373,"3":-0.35438378467239173,"4":0.030274474205323067,"5":-0.1575380313090193,"6":-0.15171708130190922,"7":-0.09778812619910927,"8":0.040097949329149604,"9":0.0657879282105211,"10":-0.0603815645524523,"11":0.3117302484688783,"12":-0.06013789416410653,"13":-0.13453258084097436,"14":-0.4430978422163709,"15":-0.2631459246519352,"16":0.2545135917219353,"17":-0.07296489488334625,"18":-0.3308682894384032,"19":-0.22479683034747816,"20":-0.22055456756192413,"21":0.0012992186902616022,"22":-0.0405431194379313,"23":-0.08273588944265531,"24":-0.04515256599795746}},{"sx":1,"sy":1,"depth":25,"w":{"0":0.17605115503446356,"1":0.1656929031055978,"2":-0.2079026648903369,"3":0.16973368847207743,"4":0.10502952169148107,"5":-0.0754922328162103,"6":-0.08878572014847151,"7":0.1181525619625638,"8":-0.17111399666933225,"9":0.1917836779785528,"10":-0.02454562892615287,"11":-0.06906251655331037,"12":0.10585817351763827,"13":-0.02706355856324473,"14":-0.09120599910973537,"15":0.06535382083017512,"16":-0.3079266429661564,"17":0.03106414153314801,"18":-0.008594082126337542,"19":-0.06111797625139026,"20":-0.27211365205699756,"21":0.10467308731260526,"22":0.048841693076047646,"23":-0.21990564874764973,"24":0.05754851130362719}},{"sx":1,"sy":1,"depth":25,"w":{"0":0.1226269291894861,"1":0.023069248175992887,"2":-0.14758871894385903,"3":-0.14144522146381716,"4":0.030037133858190384,"5":0.07278296639288327,"6":-0.4790672936042928,"7":0.051897926410576695,"8":-0.045728077303714004,"9":-0.2530380697297889,"10":-0.06789601376369156,"11":0.003510722154115662,"12":-0.2745934617998327,"13":0.42311449913909777,"14":0.2446507666910394,"15":0.47633293948764366,"16":0.5432584225841499,"17":0.14558585001681715,"18":-0.028530873423603262,"19":0.17109081793633102,"20":0.28839715437931734,"21":0.18310867534410338,"22":-0.3663181564124693,"23":-0.1370940233177032,"24":0.19951301950941364}},{"sx":1,"sy":1,"depth":25,"w":{"0":-0.05136213550266885,"1":0.3178393690133037,"2":0.08394296818250632,"3":0.11655982920840863,"4":-0.12850695869608553,"5":0.14596463898992015,"6":-0.24747102177824729,"7":-0.2601562973713514,"8":0.2880523697248797,"9":0.025114040635193024,"10":-0.1422779278304161,"11":0.09797044022091267,"12":-0.030400487148073887,"13":-0.09423972455763685,"14":-0.06614997821708683,"15":-0.08489782471093357,"16":-0.21426932137004331,"17":0.269099171663038,"18":0.28403043779709963,"19":0.10780346133764916,"20":-0.35140090552554026,"21":0.24512840497373845,"22":-0.09189705384426969,"23":0.09352925668963079,"24":-0.22920329182403643}},{"sx":1,"sy":1,"depth":25,"w":{"0":-0.2674409478754135,"1":-0.13742860367184134,"2":0.03095150237226441,"3":-0.21711629144264066,"4":0.04209962970269411,"5":0.23082835828303205,"6":-0.033176790811085946,"7":0.20073426234307862,"8":0.08543534384040351,"9":-0.08373993989460732,"10":-0.16025106300731473,"11":-0.01472743456533653,"12":0.15454891131263362,"13":-0.5967981349587794,"14":0.1018271600883614,"15":0.07814350700840135,"16":-0.03182554379725242,"17":-0.17135479382616045,"18":0.04128340977387912,"19":-0.19246301373193803,"20":0.1874551234601464,"21":-0.01342723522888119,"22":0.02354596147920254,"23":-0.2507818431518463,"24":-0.03129511990563387}},{"sx":1,"sy":1,"depth":25,"w":{"0":-0.0783783183801552,"1":0.1763214397614842,"2":-0.08206411962535361,"3":0.4217656717927598,"4":0.1577447984795937,"5":0.11526845627996166,"6":-0.2728589044060529,"7":-0.12591033452894976,"8":0.11841553720090112,"9":0.02736679944485897,"10":-0.14254059690187404,"11":0.1180710438795905,"12":-0.08251876503268192,"13":0.16918513819957956,"14":0.348759510878808,"15":0.3818691059594817,"16":0.2765344669948895,"17":0.1915193289383434,"18":-0.0460634541678109,"19":-0.053370609011397306,"20":0.5495919328065584,"21":-0.350174906133977,"22":0.03421265646410373,"23":-0.050892093371734934,"24":-0.015071488015045903}},{"sx":1,"sy":1,"depth":25,"w":{"0":0.16076401840477342,"1":-0.057752833180754554,"2":0.18608650566032917,"3":0.12961982758018245,"4":0.35632493091616224,"5":0.29710014405128243,"6":-0.06948496107410194,"7":-0.4038584853377892,"8":0.2211044638696363,"9":-0.18959051833593193,"10":-0.19044515130725698,"11":0.2592219553279529,"12":-0.19053619485713838,"13":0.6310406905250687,"14":-0.2335334452596025,"15":0.34786631407208485,"16":0.26408142304719884,"17":-0.18900944582886728,"18":0.5399413094171752,"19":0.2881259601304624,"20":0.7015075969953144,"21":0.019610048174905453,"22":0.07597240346851938,"23":0.07229115481497567,"24":-0.302677198033485}},{"sx":1,"sy":1,"depth":25,"w":{"0":-0.07149003313155655,"1":0.08822425202426822,"2":-0.08536846802906603,"3":0.07818597067204625,"4":0.23023604560049513,"5":0.27407271775443653,"6":0.1290401010719197,"7":0.330614092440056,"8":-0.13582981628190452,"9":-0.11610116101713616,"10":0.033339964248097584,"11":0.20680013678846923,"12":0.012617895884286282,"13":0.14341826501004398,"14":0.1650818512887417,"15":0.35743319476593405,"16":0.1424301824460329,"17":-0.15134433440525735,"18":-0.2328833873373553,"19":-0.05402244740140141,"20":0.3978666077287809,"21":-0.3531177183368207,"22":0.18337864249588048,"23":0.27773640262991445,"24":-0.020222929433160185}},{"sx":1,"sy":1,"depth":25,"w":{"0":0.43444587281689956,"1":0.2999632566044022,"2":-0.02456662002740918,"3":0.14885591073789567,"4":-0.07366076740879549,"5":0.35978554430206816,"6":-0.028869861035911708,"7":0.02207451039489501,"8":0.22558726227409343,"9":-0.3624339405161031,"10":0.09451460018394967,"11":0.07322042118887467,"12":-0.14029987430332344,"13":-0.11402615579915487,"14":-0.1841394376637376,"15":0.12183433539445938,"16":-0.28828303217133205,"17":-0.18133334253163508,"18":-0.02893510883928301,"19":0.10119889575636799,"20":0.06390902953253512,"21":0.058967246402299764,"22":0.15150808238045538,"23":-0.31003167645818985,"24":0.31282530825244564}},{"sx":1,"sy":1,"depth":25,"w":{"0":-0.02389936301852451,"1":-0.09696283900882377,"2":0.13672760243230261,"3":0.09237950018437621,"4":-0.2545326312666257,"5":0.21733132461818622,"6":0.30784669646642576,"7":0.12013962790831412,"8":-0.39637118658817944,"9":-0.23603273872085004,"10":-0.0854173556261375,"11":-0.06001110475389233,"12":0.2189344794769704,"13":-0.2739438290651475,"14":0.34686367536564244,"15":-0.0031315301266179436,"16":-0.20885655036029482,"17":0.1926141055637317,"18":0.1182113745866917,"19":-0.0548157029852447,"20":0.001500772597189625,"21":0.27781473613797397,"22":0.06256860477507699,"23":0.05431530291768133,"24":-0.2552797694034782}},{"sx":1,"sy":1,"depth":25,"w":{"0":0.14421260322143478,"1":0.034035985455668445,"2":-0.3721320933168178,"3":-0.0033296287789807964,"4":-0.222402101524467,"5":-0.15184645386432905,"6":-0.04610327416039188,"7":-0.3982948987968824,"8":0.0393482478423601,"9":0.26576936068861834,"10":0.16794154792139965,"11":0.10389669993910655,"12":0.0837605988014097,"13":-0.009809468599014284,"14":0.024749854020846698,